{"Layers":[{"Neurons":[{"Activator":"","NeuronIndex":1,"Weights":[-0.0021112641146525495,-0.015740130311888038,0.005739862592570151,-0.013705301978022465,-0.0054472566225120794,0.010876718788882519,-0.002566690499692546,-0.010791806018548261,-0.012359761314434552,0.011575514364590374,-0.017099314917723461,-0.013234077285418987,-0.0060892662843439766,0.016081623166771031,-0.010420356906946648,0.0049144227463087421],"Bias":0.0},{"Activator":"","NeuronIndex":2,"Weights":[0.0037856159799266147,-0.014918273113896,-0.010754006745179186,0.0052856761304927551,-0.0072959831234647669,0.0024833888342593209,0.0097062298324852928,-0.015263089859049343,-0.014484788721985683,-0.0020239266459941528,0.0034802097627202253,0.0019814084941833857,0.0084381226872005388,0.011057627982885933,-0.00084517200217424163,0.0044420857385662135],"Bias":0.0},{"Activator":"","NeuronIndex":3,"Weights":[0.0051533492123091752,-0.014801870481284939,0.0089179081468061527,-0.0025601174910500121,-0.00608365905721177,0.0064797040986667477,-0.0149642911759438,0.014623187630527938,-0.0070275600416980222,0.014479330839080692,-0.0053658678603864859,-1.4052036158365006E-05,0.016872719861108609,0.0068102710263452312,-0.016902280538563481,-0.0067106181969849073],"Bias":0.0},{"Activator":"","NeuronIndex":4,"Weights":[-0.0025917922873810034,0.0019716133755233456,-0.014673268670463193,-0.0015534015762136595,0.010114606566048776,-0.0064097969473385242,-0.0064555921904602444,0.0055996028017383861,0.0010205891370603133,0.0039121343223634149,0.00882466494549948,-0.01723008469782308,0.0047546505168534411,0.00054600987043378763,-0.0020343609014020804,0.017053598022113363],"Bias":0.0},{"Activator":"","NeuronIndex":5,"Weights":[-0.0026484791983410819,0.0097890883713111568,0.015900781859531032,0.0041737025207318305,-0.017803694121514703,-8.1399780004272337E-05,-0.005827585163113335,0.01398406239112629,0.011541125328398967,0.016569374760545368,0.00020811983693237029,-0.010852070438872789,0.011120061353703192,-0.012930451391099364,-0.0075557547174321133,-0.0079539396554416282],"Bias":0.0},{"Activator":"","NeuronIndex":6,"Weights":[-0.0059445573161097977,-0.0012436950435400183,-0.005916667298308486,3.3437814911697894E-05,-0.00582682492116917,0.008811478748297609,0.012603008601629644,-0.0031325865268792483,-0.00047910668344062352,0.0045572708664795153,0.0021295776916606009,0.0050421908072259339,-0.0016585756849371198,-0.013860375119640798,0.015575306289431982,0.0029097244938681224],"Bias":0.0},{"Activator":"","NeuronIndex":7,"Weights":[-0.013108097679830333,-0.008505504158228273,-0.015201464743181148,-0.0078163303920276931,0.011804480368912178,0.0040001134223837387,-0.0077508345831222725,0.0079804127657295658,0.005535934813171061,8.966565868070292E-06,0.008078185188287821,-0.012820435402831265,-0.012334022651781604,-0.0033057584093444791,0.00092370833945234349,0.015581561367830454],"Bias":0.0},{"Activator":"","NeuronIndex":8,"Weights":[0.00885379167652666,0.0086327721654457026,0.017739983292108928,0.00966009715123772,0.0043541947483137881,7.42388739862418E-05,-0.0061966869094260569,0.0083342178879930728,0.012803819959492736,-0.010581157582616973,0.0011776556416044533,-0.010314794137355709,-0.0073962805444623449,-0.0057513490429187616,-0.011756393789532912,0.013062761844830274],"Bias":0.0},{"Activator":"","NeuronIndex":9,"Weights":[-0.011208430361898017,1.907911584935959E-05,0.0019569522959777992,0.0085221801707956978,0.0013306108060102857,-0.0024218718349636337,-0.010936693700932289,0.010460908288417274,0.013171801840301242,-0.0056032995037616825,0.017474607082038733,0.0043597565901012207,0.0010988747988888783,0.0071566939038022852,-0.00015237838469357029,-0.016388146838021398],"Bias":0.0},{"Activator":"","NeuronIndex":10,"Weights":[-0.011719654411146523,-0.0098025210363802129,-0.0027337511930971437,-0.0061596852972117516,-0.0067196142575063136,-0.0032359940164624033,-0.0094875397088413777,-0.0039722621708846145,0.0054044578432525352,0.015962952248136153,0.014701347846531806,-0.011259771697477198,-0.012383964093115162,-0.009679505547825016,-0.0052812616115947408,-0.007526119218186798],"Bias":0.0},{"Activator":"","NeuronIndex":11,"Weights":[0.0077299964234439113,-0.012112973720885734,0.010982420907613751,0.015665770740159145,0.0067526282790694656,0.010259247447950412,0.0091375289277947046,-0.00625407029999543,-0.010021250458510642,0.0090096496902451161,-0.016260219770405277,-0.017761928594759897,0.01187435221313635,0.016012199588059141,-0.0060277812493695244,-0.0088447168028323378],"Bias":0.0},{"Activator":"","NeuronIndex":12,"Weights":[0.0023138321630920729,0.0010915991905172742,0.013187444700148494,0.0063054673818830308,-0.012339345759005379,0.0080596409925271263,0.004402440916468596,-0.0013618304018019577,0.0042745086101629859,0.00821126817409474,0.0062318938464074845,0.010641848897926836,-0.013500763882983033,-0.014825512104852563,0.011387655259024458,-0.0030679702856229209],"Bias":0.0},{"Activator":"","NeuronIndex":13,"Weights":[-0.015103899588494875,0.007802894215161154,-0.039789742781290383,-0.014888695591415986,0.0095677439579482347,-0.0037550491730813534,-0.024374409366387153,0.01429841093420069,-0.071168811619600689,-0.013582143514606961,-0.048810109734539406,0.0082991792843310347,-0.00994019211004657,0.0027343042934315155,0.011800675357663321,-0.0078696123329787329],"Bias":0.0},{"Activator":"","NeuronIndex":14,"Weights":[0.014973562592907013,0.005802417052333626,-0.051580769932925534,-0.016141442683900848,0.0075379884419296966,0.0019621401020294164,-0.069408131016910166,0.0088761811366023,-0.14951810113342195,-0.0085031858238041168,-0.13238415027570358,-0.0005360944852465724,-0.017774151095594978,0.0037823935385549005,-0.017229954286529955,0.015396162348479875],"Bias":0.0},{"Activator":"","NeuronIndex":15,"Weights":[-0.0060514288222851265,0.0033108110837755302,-0.0098189549515989138,-0.0032392795681561014,0.00901937150336466,-0.0034454156150545705,0.015268513297128196,-0.015819494111098384,-0.0033277900349943023,-0.0005300166492078702,0.0056992862503682414,0.01474139683654477,0.0022203837050734322,0.014474643688629385,0.016265352253420195,0.010083694310799989],"Bias":0.0},{"Activator":"","NeuronIndex":16,"Weights":[-0.016864953205793821,-0.0098451621892939271,-0.00060116240097895612,-0.012144050524774986,-0.00984263401010293,0.010431468464734467,0.013203408566825387,-0.017015560445130147,-0.010382129154209085,0.0039120818024704906,0.015531359475710061,-0.0077477315317254413,-0.0044623451831221125,-0.0058125766283265122,0.012847872004333797,-0.017090094578063257],"Bias":0.0},{"Activator":"","NeuronIndex":17,"Weights":[0.016888222057985507,-0.0030824610329217971,0.0096129329803459965,0.0019256968608977465,-0.014081403095778731,-0.016795040057876631,0.012369678735705606,0.0045605340045826032,-0.007612395594447768,-0.0033734956455958778,-0.0082167576388134812,0.0024452295049304275,0.00350150438687568,0.0061778547021590288,0.015935740848507615,-0.0025555442648067545],"Bias":0.0},{"Activator":"","NeuronIndex":18,"Weights":[0.0080331856771526759,-0.0072493529995467949,0.0045016230620517905,0.0071645854157496858,-0.0038610989096193767,0.0025725190323516479,0.0010574234770878328,-0.0011830064723055977,-0.0043033376505813535,0.008732586230026828,0.00066055177043217866,-0.0079557971783175644,-0.003632857640568565,-0.008609978062052135,-0.00988469836263471,-0.012216411894221582],"Bias":0.0},{"Activator":"","NeuronIndex":19,"Weights":[-0.0030558256729366767,0.0146050007965439,0.0099652343991582827,-0.015364594390519506,-0.0085987523155015011,0.0041008746586544513,0.00099862722027982756,0.0054143056647918686,0.011520210467654245,0.0019040267640677011,0.011324598467527768,0.0047820779500578753,-0.013812730619130995,-0.017304172589452219,0.0049276000127923547,-0.0037839174637496076],"Bias":0.0},{"Activator":"","NeuronIndex":20,"Weights":[-0.0036488145058004504,-0.00816774745353193,0.013517894547274686,0.0034533846956527163,-0.0029125115431969974,0.013830717701053451,0.010165328888099991,0.010804529248645774,-0.0043854334362182518,0.0011548434106821923,0.00817525822085374,-0.01694803550198383,-0.00362266103872488,-0.01045038126662857,-0.01315303306275388,-0.011077050898126949],"Bias":0.0},{"Activator":"","NeuronIndex":21,"Weights":[-0.0016361703754571126,-0.00310840799584711,0.0043850934868476,0.0059069002856332979,0.0080436065281678272,0.014333567547168517,-0.0025178730981840307,0.016175724698245929,0.0058486850743275677,-0.0042729815571243522,-0.00693931125726918,0.006970087127746126,0.0081944471745592877,0.0082572016188342916,0.012588590331184018,0.0070279502159646887],"Bias":0.0},{"Activator":"","NeuronIndex":22,"Weights":[0.0080077586915779236,0.011123034800593158,-0.015250027876995916,-0.014690777800966283,-0.015005384088230298,-0.0063303475646909087,-0.011357519639556338,0.01238710835454385,0.0077653197258549349,-0.00073715740948916,0.011050061751978632,-0.0032747202884088576,0.0076683294645828806,0.015463365157616697,0.0075979416676521284,0.012873416830726628],"Bias":0.0},{"Activator":"","NeuronIndex":23,"Weights":[0.01497954645592299,-0.0097951952862663973,0.00034277216780128489,-0.00996244878007479,-0.013264609149381268,-0.0107011389718995,0.015961786115856871,0.014552799617397305,-0.016424897824678455,0.015276735614049727,-0.004025796687974233,-0.0009764516813836957,-0.016112976922905791,-0.00075219562478532134,0.0086915525398776478,0.0075426202585254336],"Bias":0.0},{"Activator":"","NeuronIndex":24,"Weights":[-0.0035156837398192826,0.016607917395636933,-0.0013403857349273546,0.015688422134998846,-0.00078947763161775833,0.00033643085891081961,0.010477841878199744,0.0095040167509929489,0.016124251647045416,0.015034904552506834,0.0075607902455493217,-0.00875116801130573,-0.0069791092819303912,-0.0086401382451531724,-0.0081319008642490483,0.0032213853903347404],"Bias":0.0},{"Activator":"","NeuronIndex":25,"Weights":[0.001423040181063203,-0.015730996864656052,-0.0056923427562393242,0.0089788167429989268,0.0058908542296340939,-0.0067824644949604652,-0.0032963284689184209,-0.005484442619965486,0.012156363474211427,-0.010278096518808354,0.0052594436839366668,-0.0060695162420484772,-0.007754306404005212,-0.0030216562958268987,-0.0093020072965293351,-0.017023542030725414],"Bias":0.0},{"Activator":"","NeuronIndex":26,"Weights":[0.015687835684499489,0.0079259349352867429,0.016968930322662432,0.014635029463592727,-0.014994480296567705,-0.010850022211068852,-0.015662814622521379,0.011906932820456136,-0.013005470538780511,0.009153073998771577,-0.0059482831718558442,0.010620817788167838,-0.016851394919077185,-0.0048791906303562709,-0.00550372024888479,0.0050167124159711911],"Bias":0.0},{"Activator":"","NeuronIndex":27,"Weights":[0.01057890414786208,-0.0054724462206147562,0.014496453603761214,0.016375736515678342,0.0031388143142001244,0.0051684353408256722,-0.017756038312087916,0.0071464726219103575,-0.014752390975948604,-0.012017886184896024,0.0030955050703848942,0.013723651826718662,0.0029886690331570216,0.013587128053027461,-0.0095073804054111016,-0.0037187156866857387],"Bias":0.0},{"Activator":"","NeuronIndex":28,"Weights":[0.0015481605750533312,0.0073554440784991924,-0.014721631353724443,-0.0028166624846945806,0.016558020740940774,0.011408557363976054,0.0039106342776794555,-0.0035596983607005528,-0.012729146881302021,0.015153901034904729,0.0039434207405498467,0.010532057474814647,-0.012117082849132934,0.017209694105165069,0.011145836886751657,-0.014028832480923526],"Bias":0.0},{"Activator":"","NeuronIndex":29,"Weights":[0.013643809808451861,0.0037396724569463378,-0.0081554581698621079,-0.017322396160785691,0.010293516227114323,0.0028432008873473316,0.0027314933844523014,0.017643478017067823,-0.00040077462179089959,-0.0036112232666115785,-0.00475054514715806,-0.0025748845584307525,0.00607026831828935,-0.0075496065914529269,0.0042678853433629239,0.011742667691329672],"Bias":0.0},{"Activator":"","NeuronIndex":30,"Weights":[0.01002509884969835,0.010542234335945894,-0.00761729880823628,0.0072579493730066634,-0.014527544427576129,0.010871997116473103,0.013124349092457337,-0.0095608814281495386,-0.0029460240219069227,0.0012334997056341127,0.0036527944296711225,-0.003542436812325583,-0.012245276241744,-0.0013566860087280315,0.0099344701203212468,-0.001006799010430038],"Bias":0.0},{"Activator":"","NeuronIndex":31,"Weights":[0.014276301153997632,0.013321909918333628,-0.0067203028042429613,0.013728780204370447,0.001995003292534301,-0.01445465037507288,-0.0013533868317674377,-0.010060625313476818,0.014663345445056805,0.010602037685072733,0.0028898224464237662,-0.0087549859515713858,-0.0093484857146521362,-0.0060309004981347683,-0.012295622492413259,0.011653221209438552],"Bias":0.0},{"Activator":"","NeuronIndex":32,"Weights":[0.0072387459339089168,-0.0077536756824220215,-0.0070594931303667469,-0.0082416435924951726,-0.013999006110442604,0.011097655894546341,-0.0033272086641545316,0.0098286562761425271,0.0093921174621704982,-0.0076885349069868176,0.00069022984442378491,0.0080078941823818334,-0.0069145037841451974,-0.011492259498116547,-0.00061457864469862192,-0.013847029383555667],"Bias":0.0},{"Activator":"","NeuronIndex":33,"Weights":[0.0064409595827760562,-0.0037599358575498131,4.2048014460738814E-05,0.016917129372277007,-0.010209890095548253,-0.0055296378086235254,0.00063408721469394164,0.0075761522118534281,-0.0058913018765333874,0.0052289715399568386,0.013214121670245172,-0.00033803291671071932,0.0024551919789310497,-0.016860089613591832,0.01596428543640234,-0.01454350415329878],"Bias":0.0},{"Activator":"","NeuronIndex":34,"Weights":[-0.01654476109413951,-0.0083986988047530936,-0.017390935888183714,0.012434031311761726,-0.011517245957406082,-0.015505544157301451,0.0078723089634985931,-0.0091449380669633967,0.012949059856443929,0.0049441550935358522,0.0037748803479254992,0.014896480380120748,-0.0030237972693901807,0.0062254379916023127,0.014455017897892572,0.00893616004032436],"Bias":0.0},{"Activator":"","NeuronIndex":35,"Weights":[0.016250378480336378,-0.00020142772089949243,-0.0066573352240674533,-0.00579009266768233,-0.01488892300484874,-0.0067041694721397347,0.012029174527772494,-0.0065563518922370796,0.015494006295225819,-0.0060907112884882805,-0.018260757162885621,0.013031375795366609,-0.017327699771159635,-0.0078704120296514239,0.016183757785469457,0.012894884730773324],"Bias":0.0},{"Activator":"","NeuronIndex":36,"Weights":[-0.001399658786001515,-0.017689464872154656,-0.0037610180015780637,0.0028196590712068715,-0.00421395986283063,-0.010424952091749354,0.0042626075542898448,0.00082938067043392192,-0.0042689408214220655,-0.013913540449075784,-0.058175002951463904,-0.0065898210242582352,0.0021734040445344814,-0.012912857367180765,-0.0023155300746346649,0.014446594583533487],"Bias":0.0},{"Activator":"","NeuronIndex":37,"Weights":[0.00704170611182719,0.016417082750645642,0.0042860282461839568,-0.01444601091696285,0.042581093873944667,0.0017683906350406354,-0.02267703363857005,0.004713676599807942,-0.018279314096267669,-0.011365253634994037,-0.0822313531027465,-0.0028437746271181524,-0.019135077545348784,0.010803184555594869,0.0093300100450500849,0.010028053024455068],"Bias":0.0},{"Activator":"","NeuronIndex":38,"Weights":[-0.0014622509049268513,-0.0039596492401758644,-0.019551804807149565,0.013322760773573526,0.021161629541394143,-0.0029953982606299384,-0.034856749901900234,0.011476513668687705,-0.0058209987878079777,-0.0032314868531728288,-0.00333732296916378,-0.0015304337252147011,-0.0217684412093631,-0.035391858715800889,0.0050057620325647178,-0.010294776634258597],"Bias":0.0},{"Activator":"","NeuronIndex":39,"Weights":[-0.0088066302747418085,-0.0094917323880624026,-0.022879951883834567,0.0040339525387831452,0.0030244559155213884,0.013723307643402263,-0.057378469441084795,-0.0066562882871639816,-0.052773954134005333,-0.017610638482218128,-0.00935648731258025,-0.053538702501492945,-0.0077848099501784994,-0.044571295059650205,-0.014754545216279644,-0.015362330299844722],"Bias":0.0},{"Activator":"","NeuronIndex":40,"Weights":[0.010109969200412882,-0.0044792205662402005,0.0021186904051921458,-0.0118489021823078,-0.013795523612014032,-0.0025627299224166254,-0.095452436805904359,-0.0088443403700014019,-0.10151782066175576,0.011075751785778513,-0.0851125403334883,-0.098323766808904658,-0.00414042914990366,-0.0075445354913416963,-0.023460151959870702,0.011751223905399403],"Bias":0.0},{"Activator":"","NeuronIndex":41,"Weights":[-0.0033330109526237077,-0.011494591603158147,-0.037334633619073639,-0.016579755566318518,-0.0069692530434853246,0.0082398705435376418,-0.2189325394047813,0.015673859311903966,-0.17378984384695984,0.0050979322924293406,-0.25444372697389495,-0.0041219970403135273,-0.0026978742119857513,-0.019726093698556494,-0.029765787453751566,-0.0053022367487999753],"Bias":0.0},{"Activator":"","NeuronIndex":42,"Weights":[-0.0021337180289566211,0.0089233147891747966,-0.056262236735214043,-0.0043624136136196125,-0.00096372362541104792,-0.0075681814240262848,-0.054411335142002533,-0.0020497190471441486,-0.13433744437142381,-0.002058317518165308,-0.11719549883227816,0.01098925979707664,-0.050920571226531847,-0.038109775482477085,0.0031786171176414815,-0.00010433237735520273],"Bias":0.0},{"Activator":"","NeuronIndex":43,"Weights":[-0.012694392928037227,-0.0065907186024425392,-0.031396037229421046,-0.018305491146865045,0.0022734957958375403,0.0069758027458065074,0.017407711083798849,-0.0082760964401715816,-0.05849730280705405,-0.009014518690947014,-0.0721720798221317,0.036159107352355439,-0.011963864123245805,-0.014312092199300038,-0.0024407807170404388,0.033523217218980314],"Bias":0.0},{"Activator":"","NeuronIndex":44,"Weights":[-0.0056293777113976245,0.010557891841011155,-0.044626200792442096,-0.022109026548841133,-0.011131581481543211,-0.0067977584454281606,-0.021859929817987192,0.018578169789771736,-0.10116192613771152,0.0078032554136506348,-0.10295899139894277,0.023287291631362356,0.0048992781421576849,-0.039996966861011077,0.0189930925820601,0.0061377912354419551],"Bias":0.0},{"Activator":"","NeuronIndex":45,"Weights":[0.013041491434017309,0.0035319167929701921,-0.051125851140606311,-0.026737674839856562,0.0056568950941132462,0.0038336006096532436,-0.01466357267661076,-0.00974376666401263,-0.089322053920098621,-0.000919616491873474,-0.068042635737059834,0.1087779052383296,0.0050150659274353455,0.041689617903542336,0.0018260320369388097,0.037596259503768804],"Bias":0.0},{"Activator":"","NeuronIndex":46,"Weights":[0.000918694986374836,-0.013850267092935771,-0.0010446130422404978,-0.002058471755583346,0.0023395702396679496,0.0070496594256937595,0.0054710290471261976,0.0066063159352758834,-0.032173682087591533,0.0049965534098809173,-0.019066175315114842,0.012936580726829308,0.013586759956035178,-0.00043680151618176504,0.014907273355629172,0.016277167650307331],"Bias":0.0},{"Activator":"","NeuronIndex":47,"Weights":[0.0034992898213323286,-0.0081246195719196813,-0.037281823947600011,0.013423954753992082,-0.013347567702600909,0.0023307022130947346,-0.0065532018388640171,-0.0068159982672139664,-0.029122030969169811,-0.0029367431229793796,-0.044223371409762638,-0.014696587806967365,-0.017355259503173917,0.0075134519095213,0.0051278203772471493,0.0022812893902807658],"Bias":0.0},{"Activator":"","NeuronIndex":48,"Weights":[-0.0082855875740899514,-0.010360880626986417,-0.031395887221591486,0.012256668874058834,-0.0019651097204489098,0.0041160037253398,-0.0095543180141027355,-0.015928433781333885,-0.03991194020853165,0.016151352197536342,-0.048716163290770484,0.011907985160730215,-0.0072698924788686392,-0.0029783715401902841,0.0090985876158917352,0.0024189182576747278],"Bias":0.0},{"Activator":"","NeuronIndex":49,"Weights":[-0.005165652862019263,0.0054762446214030348,-0.00062078658620065531,-0.0067985076474021723,0.014301627295324059,0.00084398971651123865,-0.010912583551239603,0.0015025136826283118,-0.010782607188395892,-0.014445565872787926,-0.015436755000195921,0.00036728806681828936,0.01175282427231626,-0.0020662390914951735,-0.0069255497953621724,-0.015092975063801689],"Bias":0.0},{"Activator":"","NeuronIndex":50,"Weights":[0.016857762499145588,0.0073191971156544343,-0.012453398997028728,0.017819971977994783,0.00099867294859767863,0.0013134230917896633,-0.014996544688584966,0.015701586549257657,-0.0049246094039050977,-0.0059759852013403615,0.0017397839925918049,-0.0076445010917830705,-0.012773947985364445,0.0027967621466543496,0.0075963887281717511,0.0037444110049766211],"Bias":0.0},{"Activator":"","NeuronIndex":51,"Weights":[0.0060929746269647832,0.0018510287292770944,-0.042245573326803149,0.0011000719489173978,0.011142832898889392,0.016400958958372167,-0.0048408974104990976,0.017794018909563444,-0.017863830459036119,0.0093779791603052411,-0.028115914397896288,-0.014486334116132839,0.00077156881020912877,0.013950120088395957,-0.0066771410335093422,0.0096392851032935586],"Bias":0.0},{"Activator":"","NeuronIndex":52,"Weights":[-0.0001736157104345782,-0.0056322150906472166,-0.047872616180121529,0.0025830545379034505,-0.0015269148723484037,-0.0072556229919379924,0.0070563011650512687,0.029739549111588132,-0.003630698408733118,-0.017662030648593043,-0.036175391926133942,0.0011595201050212866,-0.0092378566156618141,-0.002020630742278714,0.0022089564961856969,-0.00019210088907147628],"Bias":0.0},{"Activator":"","NeuronIndex":53,"Weights":[0.0024567369599292552,-0.015767154133171514,-0.0014802527737246135,0.015642790921065658,0.0052911780682817,0.0029030309288443981,0.015871496171697211,0.00061386531812917741,0.006334113533830725,0.015407854573591943,0.0092576698226989676,-0.0079798109816692411,-0.003685054113210004,-0.015381183523995288,0.0096647079297376634,0.016090369932196008],"Bias":0.0},{"Activator":"","NeuronIndex":54,"Weights":[-0.014594050405491034,-0.013344808496163204,-0.0036617723792945964,-0.0038060987236272735,-0.011608013381400283,-0.010821441467901299,-0.014199733566120143,-0.012578081969108337,0.010179534550906342,-0.0037998711358755224,-0.0072218711671255178,0.016403015319778259,0.0048519764866522819,0.017349150829844978,0.0034611371578135118,-0.015260206833602956],"Bias":0.0},{"Activator":"","NeuronIndex":55,"Weights":[-0.01493978513534969,0.0044401007409128161,0.010246374391333638,0.0023388177017662493,0.0076712988369365791,0.0073133882119316151,0.0034511058324653773,0.012085483556453561,0.014282307652422374,0.0069741418235149642,-0.0025636979440590291,-0.0094292140027644172,-0.0049599282649558235,0.017196955208891383,0.0058142737861789154,-8.0349547493301088E-05],"Bias":0.0},{"Activator":"","NeuronIndex":56,"Weights":[0.00773812005091238,-0.009006022255338338,0.0031327476124232111,-0.016871667034199039,-0.0082990153914246374,-0.00065007650356942864,-0.0090663137172790637,-0.0053217715159492567,-0.0022679381831466339,-0.0055444710830633188,-0.010292233812559238,0.0078977858601327264,0.0040995471082160007,-0.017238884847988519,-0.00016115571745592069,0.0098981487727249733],"Bias":0.0},{"Activator":"","NeuronIndex":57,"Weights":[0.0066632123811464807,0.012734065029513252,0.0067603639441623856,-0.0026090179465753111,-0.011888516831226355,-0.0046726150509840345,0.011601586573771274,-0.011958746619303792,-0.015917033754450083,0.00055648059709897946,-0.0103511364064484,-0.014899282681575775,0.0066939567529634772,-0.0060473192494715985,0.0083204183150909633,0.014756608337183633],"Bias":0.0},{"Activator":"","NeuronIndex":58,"Weights":[-0.0091881099050143966,-0.013552645019779016,-0.0075988489754093488,-0.000391396768906007,0.012562961431548846,-0.011713869617386925,-0.0075849901970006864,-0.012737971977607867,-0.0052946688316005859,0.017301569143716708,0.00493048475120705,-0.00912002688199549,0.0059946862858961461,-0.002406733585644456,0.0090867631828284237,0.0079251392698232032],"Bias":0.0},{"Activator":"","NeuronIndex":59,"Weights":[0.013842310388698653,-0.00015453261696345824,0.0088762169365482028,0.0073249245379295846,-0.013633390520727923,-0.017497586885800966,0.014697879135155557,-0.0067730974353809193,0.0067213625733033933,-0.0036669120159785523,-0.014291921595584197,0.0066965744013682549,-0.0053481859370823875,-0.014289476690882173,-0.0105894964620156,0.016219997195695925],"Bias":0.0},{"Activator":"","NeuronIndex":60,"Weights":[-0.00048888254980044362,-0.015992989581443823,0.016788592232678669,0.0073063129005694035,0.015047847392370093,-0.0070885203093763458,-0.0080378196303674734,-0.015779761343162078,0.0066839713292929145,-0.01044200392308701,-0.0134523187235161,-0.0036157481784216817,0.009848107751159468,0.0098057147586346968,0.013955157488858606,0.0053509835509646074],"Bias":0.0},{"Activator":"","NeuronIndex":61,"Weights":[0.0013337616901715958,-0.013628388803628504,-0.0025711371232397555,0.0016260551236920346,0.0089372717272215157,-0.014150122107115925,0.012496192581201224,0.0075841068220264644,-0.0039357824206471105,-0.0012819919873341267,0.016287050948475872,0.0091745344359945025,0.013180652157762316,-0.00960016011060584,0.0072576354783497124,-0.011070611576928416],"Bias":0.0},{"Activator":"","NeuronIndex":62,"Weights":[0.0031981727895635309,0.0019962183189528508,0.01735977968210747,0.012873140558882362,0.013067712139242486,0.010477814144266783,0.0061956218905700371,-0.0063166193442794382,-4.6962156073132258E-05,0.0027114310150838086,-0.0185436136758541,-0.0054955982210890238,0.017593199997242192,-0.0027016375619569942,0.0075948289107310761,0.011753034102282154],"Bias":0.0},{"Activator":"","NeuronIndex":63,"Weights":[0.01299862879142015,-0.012963931255950552,0.0082190745453131989,0.0091347345510487381,0.04437206859172927,0.015126622460687238,0.008660901327959351,0.0085432265208191856,-0.00639917602024158,0.0093995212917183085,-0.10218898001807458,0.010116392826694806,0.0034561781390832868,-0.016413481763310284,-3.1834853290352676E-05,-0.04586492792280697],"Bias":0.0},{"Activator":"","NeuronIndex":64,"Weights":[-0.0042298730111398689,0.00759083131203229,-0.011491102840240849,-0.017895010709693134,0.038945353757668492,0.0046660564813229312,-0.011294063695389942,0.0022817167251435325,-0.019547024999905724,0.0093856381719649423,-0.11558987590621156,-0.012138648415531032,-0.0082258279126646086,-0.01133564231760051,0.00091316524164922533,0.0030438086146115451],"Bias":0.0},{"Activator":"","NeuronIndex":65,"Weights":[-0.0022340500890533008,-0.0038668098133304413,-0.03773700585776564,-0.0033111626768555797,0.089298442543929213,-0.0055177359958165327,-0.041803517046490796,-0.010639399904997944,-0.04357885902130413,-0.015043519217987895,-0.17838594582479592,0.034607057094035096,-0.025607675739231249,-0.003735701378387012,-0.016152947259141751,-0.0061984090069198659],"Bias":0.0},{"Activator":"","NeuronIndex":66,"Weights":[-0.023281870114599958,0.037385915371951718,-0.045463942716144408,0.073768456175089536,0.025246500429731721,0.013402645314134048,-0.075616393115344113,0.0022346561756123482,-0.087501157640062013,-0.049402741085715296,-0.11714736222526421,0.029641169749524,-0.044886984302242819,-0.065754343656761124,-0.0021017309432145742,-0.12176819842921367],"Bias":0.0},{"Activator":"","NeuronIndex":67,"Weights":[-0.014981518224405006,0.00049332495404446578,-0.1859547332669961,0.14682952016557652,-0.00434796493706898,-0.011242246602955046,-0.17791450293970643,0.059201862476384939,-0.278815801308508,-0.028775755421146226,-0.14316151945746189,-0.015694511734804944,-0.12231875631746575,-0.081218472243285031,-0.027736446687459528,-0.018187355633975281],"Bias":0.0},{"Activator":"","NeuronIndex":68,"Weights":[-0.070054713715150763,0.0024492851220134543,-0.2964438567233138,0.14403551644247573,-0.02265621050819033,-0.016273841368420836,-0.35093170809950253,0.080865821441286331,-0.4132133791806295,0.055654777401708884,-0.35752130664518483,0.053997856056769253,-0.14351707014814505,-0.094178844553879912,-0.048070213953117946,0.092503587457113526],"Bias":0.0},{"Activator":"","NeuronIndex":69,"Weights":[-0.061163435766999265,0.0087132891181523411,-0.16170474213786282,0.073869983110693177,-0.002043370837407616,-0.012684679147684723,-0.27694606943954908,0.023324952001489166,-0.43233319801499587,0.065474835273358664,-0.45998226310360812,-0.053963979633649385,-0.27323888306253113,-0.207888581862577,-0.073461588243551243,-0.016996144014147351],"Bias":0.0},{"Activator":"","NeuronIndex":70,"Weights":[-0.050361413383392353,0.070666200144312089,-0.32193014359964323,0.14800386797399859,-0.0097800673558835864,-0.0006355886151083,-0.16348155050088978,0.0860105798875384,-0.3837509433776502,0.0011516987928483131,-0.41357985666809632,-0.33317018892155881,-0.38220546739911515,-0.31681862550112905,-0.013313145318690843,-0.053017939802987517],"Bias":0.0},{"Activator":"","NeuronIndex":71,"Weights":[-0.085452056711835686,-0.048271270932454681,-0.40284719021932558,0.10924315567666502,-0.024334778545393385,-0.0031743527325994664,-0.1447220502416095,0.12018081847533317,-0.38149349180829806,0.0021500386763666423,-0.39174059214196161,-0.17842911860978089,-0.17609511712454012,-0.27598897167355507,-0.029075057719669357,0.035476094256477964],"Bias":0.0},{"Activator":"","NeuronIndex":72,"Weights":[-0.098238452148388528,-0.0837051440975955,-0.33478616247683879,0.093092615650109886,-0.010645943621381368,0.042942010854915162,-0.2712591113322117,0.16273816633331342,-0.4961599188759479,0.0012772849298990242,-0.42301451981834631,-0.14873633556526727,-0.28849437989320781,-0.25036571591922008,-0.053928807729017168,0.037755723241077482],"Bias":0.0},{"Activator":"","NeuronIndex":73,"Weights":[-0.15006054401632779,-0.03350104155066027,-0.28629176153590447,0.0878622140540768,-0.039105747933313922,0.062064132927048377,-0.30344540045191049,0.15992021495472059,-0.3582975119430245,-0.0019469366722824628,-0.34625934089344679,-0.10474367153415509,-0.30843911447871303,-0.12954100728410123,-0.14922184177521203,-0.04585136891647186],"Bias":0.0},{"Activator":"","NeuronIndex":74,"Weights":[-0.14412303531929321,0.0777520432847242,-0.14439865270170268,0.14404808036724487,-0.12466115988474283,0.028135600357811791,-0.096985634753090355,0.075372414837249463,-0.24141607907001431,-0.050916803666156418,-0.26400738410158536,-0.091739689182087233,-0.11849079858272185,0.010566026409913953,-0.13121456458719144,-0.10647662343899875],"Bias":0.0},{"Activator":"","NeuronIndex":75,"Weights":[-0.1424839483499904,0.060480692361024331,-0.10445192687276028,0.063490417658922021,-0.13393970455471743,0.016666777362026795,-0.10443183924838736,0.16172259094073166,-0.19108049997893803,-0.028745073100752486,-0.17562537850154453,-0.15801418244078719,-0.099306090665591415,0.067030512817804616,-0.093344418957622841,-0.22653757770437266],"Bias":0.0},{"Activator":"","NeuronIndex":76,"Weights":[-0.13153580742535267,0.063148162991114129,-0.0188295628302579,0.0167310979672053,-0.12503720053518985,-0.0034454583013319483,-0.046841149848205206,0.15216376082318664,0.0031399821237541154,-0.059818313633535507,-0.016437559179118148,-0.4013251096449455,-0.14374913237174636,-0.0003204284800775761,-0.10237240462406504,-0.3672828044151738],"Bias":0.0},{"Activator":"","NeuronIndex":77,"Weights":[-0.10519145840996288,0.0056992636430059423,0.068292845475924707,0.014243448559174362,-0.11239605846708954,-0.0036583126841693509,-0.028441865561524133,0.10608980477193837,-0.0095095629428648652,-0.049457549875851506,0.020245473522405494,-0.24949598800579334,-0.074040875662969324,-0.015959058089673839,-0.1003948805027023,-0.24136890392798285],"Bias":0.0},{"Activator":"","NeuronIndex":78,"Weights":[-0.082225432688644837,0.0024599444202199165,0.051625186693510954,0.13367824899804628,-0.074216173762414572,0.018932582379402943,-0.11333571292184065,0.038500409646954274,-0.099226041226670642,-0.0057521704883058142,0.018213774615806842,-0.35174364758141557,-0.042287584042848964,0.0086140167750328751,-0.013899421623963543,-0.1357287981225479],"Bias":0.0},{"Activator":"","NeuronIndex":79,"Weights":[-0.027764066297393135,0.0030403437654144549,0.0486588925493936,0.12702383180199947,-0.0033423034376779833,0.017596358753529339,0.03477546534529985,0.019238275661743468,-0.019777397030664882,0.013121636086140075,-0.0093716580637621168,-0.27344348805095964,-0.016744212026153924,0.0076931465481275213,0.00859118765774859,-0.10783307798890861],"Bias":0.0},{"Activator":"","NeuronIndex":80,"Weights":[-0.016556459720330329,0.017545660467992039,0.029264215412824906,-0.0029450047765404688,-0.0013500786705055467,0.0047388620223078161,-0.00034747250055695763,0.027204084619869992,-0.033389121397475789,0.0074114707304105167,-0.032889597917112559,-0.044684109508313613,-0.004856889991041881,-0.0096690744320783433,-0.00459891010778975,-0.0078130147414740437],"Bias":0.0},{"Activator":"","NeuronIndex":81,"Weights":[-0.0048392767597978861,-0.001126876731118692,0.056675795322931564,-0.012784792120407243,-0.0088143040065410821,0.0064687721234561032,0.0014133838131172578,0.0065334058432670525,-0.02893169972508057,-0.0063149039466777772,-0.01608467653057721,-0.012397223144238642,-0.017275272450012882,0.0038275059229644351,0.00784316884299093,-0.014455472454392075],"Bias":0.0},{"Activator":"","NeuronIndex":82,"Weights":[0.00052646042750691363,-0.012944501574417169,0.0019953907590819376,-0.0114227554835509,-0.011732016180158544,-0.016955548639956047,-0.000689938914925764,0.007157771492554716,-0.0030428002245978273,-0.01056771751689122,0.008306188839965525,0.015635148873466728,-0.0073645916861128351,-0.0014979747314154404,-0.00211060229697363,0.011782586000156971],"Bias":0.0},{"Activator":"","NeuronIndex":83,"Weights":[-0.012210991380634913,-0.015954215810413307,0.0016521010472415783,-0.013593609958365244,-0.016471361524578419,-0.0085114531973762824,-0.0054017932462115219,0.016121457313443548,0.0077048885156356731,0.011421236456035815,-0.010784196813756424,-0.00789734617609274,-0.00580835273660044,0.0012645969322917297,-0.0022762240935738053,-0.01690701159072169],"Bias":0.0},{"Activator":"","NeuronIndex":84,"Weights":[0.014276608024786107,0.014336537035937534,-0.016052907115737931,-0.017101325709686033,-0.00896621137509944,-0.016544175267140328,-0.00090101656512670686,-0.014530871743783095,-0.012851590354857775,-0.015650375395916974,0.0045553974778582834,-0.013158981802548205,0.0011595193318701125,0.0074544547609440154,0.013532417425202399,-0.0099829608936980851],"Bias":0.0},{"Activator":"","NeuronIndex":85,"Weights":[-0.013847329967916763,-0.0091266965985089855,0.0096214182935887883,-0.011360968110851861,-0.0077801983024832783,0.012411818055428212,-0.0064515196498856377,0.0096908385295178638,-0.0030683238888477554,0.0096369660587488221,-0.013198575268858113,-0.006944568789405213,0.0033847715006272046,0.0026545854148043932,-0.0012020846318862403,0.0072087896106672565],"Bias":0.0},{"Activator":"","NeuronIndex":86,"Weights":[-0.0034072221289289419,0.0010969821518472568,0.0029457998891507797,-0.0063753149618279732,-0.014335219480586006,0.010659207303849613,0.0013005576917438574,0.0042977708195658382,0.00030958625069999607,0.010405492083957048,-0.005596473557886221,0.0079426381058856875,0.015574924680006853,0.014028413984472125,0.0033526261369344092,-0.0060118207586319014],"Bias":0.0},{"Activator":"","NeuronIndex":87,"Weights":[-0.013075133883170951,-0.009843664505507407,0.012358277691446677,-0.00602742507821066,-0.001433041544469675,-0.0096914043329329267,-0.0013393418176226818,-0.0086426159607227784,-0.014799152030035907,-0.0052381822906612955,0.0092897028788585,-0.0018694299978205639,0.014627693185536528,-0.01396821883128967,0.0075778562827065708,-0.012077722854144641],"Bias":0.0},{"Activator":"","NeuronIndex":88,"Weights":[-0.0070943262465059161,-0.008246007443899403,-0.013690820369712246,0.0025968499095878738,-0.020495511968733855,-0.012588445162257047,-0.0030750051274930981,0.0022993848509043581,0.0016595980611036375,-0.00883707950633397,-0.0024939660869527976,0.0011189224015786298,0.013397769730367123,-0.016394465742509537,-0.020316622404120209,-0.015795038454605038],"Bias":0.0},{"Activator":"","NeuronIndex":89,"Weights":[0.008009414282737078,0.005039936250490964,-0.0094308714654060526,-0.008030680677231776,-0.010132706578051072,-0.00493514642896014,-0.013450020462480422,-0.0033253957844842142,0.015918050155058049,0.015819439211557467,-0.0118069542439103,0.0064947283021437917,-0.02006815527377433,0.006920626667988092,-0.023546443699938472,-0.0083924561682159528],"Bias":0.0},{"Activator":"","NeuronIndex":90,"Weights":[-0.0081612011473689277,-0.015377351908786684,0.0016835349111322759,-0.00835973776376171,0.0061805432759239739,0.0018341467432579476,0.0032945250708181456,0.016739168966991382,-0.001339667826315844,0.016736035733818894,-0.020265552162347669,-0.012330465777245165,-0.00462912658586191,0.014409874537118944,-0.060132909239878136,-0.010347174534326195],"Bias":0.0},{"Activator":"","NeuronIndex":91,"Weights":[0.012996785178931009,-0.020121946036988893,0.0055069287400012663,0.00020254938439659314,0.011071122187095132,0.00785429418599496,-0.012750561213014549,-0.0051927313842956482,-0.015157543118110257,-0.0018018397066367688,-0.082317952373384268,-0.011655662314964826,-0.065996084503711763,0.030520026213637155,-0.057677006187921244,-0.0037502455602330545],"Bias":0.0},{"Activator":"","NeuronIndex":92,"Weights":[0.024487664655876245,-0.020195936138429522,-0.029710285763994183,0.057749960823260151,0.041543848063863208,-0.00416631361322037,-0.063571099078992721,0.00079460458712876029,-0.058006395393283741,-0.01984262236988495,-0.13441243945705994,0.0671564984054993,-0.09676787523073338,0.01558456555798236,-0.074078688005420126,0.058575039263833395],"Bias":0.0},{"Activator":"","NeuronIndex":93,"Weights":[0.026799785655804344,0.020594723148067352,-0.060494512592826746,0.072224420519652222,0.14830906403527214,-0.00734382213100796,-0.11952615814795181,0.023416072519041663,-0.13746740141054445,-0.06909365129456578,-0.27086450688311464,0.34815221732836177,-0.085803303987656024,-0.035173281516600645,-0.034411881101115746,0.027369481069960792],"Bias":0.0},{"Activator":"","NeuronIndex":94,"Weights":[-0.00786044206730158,0.0690833753696834,-0.16442900150065878,0.29421058144094048,-0.023609708656062271,-0.11005179808952743,-0.14643335494709228,0.0763788653305926,-0.22655823833020183,-0.084681350103378128,-0.24016490596114842,0.36542218541711546,-0.15395765122420069,-0.095987648877800355,-0.13566180214055498,0.036924576122347688],"Bias":0.0},{"Activator":"","NeuronIndex":95,"Weights":[-0.042052146667960186,0.0863140971431152,-0.27398873019142078,0.34169004917106288,-0.11423960190451155,-0.18522299390780969,-0.25998305200828353,0.15571064888662237,-0.45332702583464612,-0.07735852522824134,-0.25048839523527855,0.30111434645603186,-0.34875983987084747,-0.10739275741264105,-0.22406337983620137,0.17565880876338413],"Bias":0.0},{"Activator":"","NeuronIndex":96,"Weights":[-0.062113510128085282,0.082287301213770661,-0.56488831421019692,0.349134683829247,-0.068555781880651256,-0.21830026904410044,-0.45525465176671476,0.22174093299705974,-0.71347936256695732,0.056476209033724335,-0.509067412275614,0.20596009861527975,-0.49123725402703405,-0.1768275012407324,-0.13789951113570012,0.38311523681775889],"Bias":0.0},{"Activator":"","NeuronIndex":97,"Weights":[0.0024875554843973792,-0.071098326420500582,-0.59430791659954119,0.23691921915301617,-0.14886244775535484,-0.28097720253818315,-0.43909477701116323,0.34288171327199007,-0.74828805868500248,0.16793822989760132,-0.70522387082613558,0.51378372458765909,-0.56967978871226277,-0.3500518720505304,-0.20425549658877143,0.50531760044436125],"Bias":0.0},{"Activator":"","NeuronIndex":98,"Weights":[0.00208767239327628,-0.13135002852610092,-0.91672751548120468,0.15124946285796534,-0.23526923396859131,-0.24445333746583833,-0.44122868902330364,0.35524991999362826,-0.78468921034107952,0.18224128942125523,-0.95640550987571049,0.41729648697883887,-0.53024788001411383,-0.47451632678821315,-0.27394870098835522,0.18766646988629004],"Bias":0.0},{"Activator":"","NeuronIndex":99,"Weights":[-0.17867144695844359,-0.12269269807672112,-1.1831866186339994,0.45025465274660531,-0.39366878763127705,-0.17242152111143824,-0.52013711322451128,0.2743336907242272,-0.99373858368239176,0.099722444966024851,-0.914452185339954,0.48891414125416816,-0.520444985981817,-0.45967520775642245,-0.3201995196848072,-0.37114731104628251],"Bias":0.0},{"Activator":"","NeuronIndex":100,"Weights":[-0.10252833645423595,-0.16534880477021785,-1.3266261023667547,0.419203078330853,-0.392924809838783,-0.053648893101827418,-0.57714990016599144,0.2373401985065989,-0.970568988530378,0.017563631632222566,-0.65113017654912286,0.75477408700231752,-0.64693465924389237,-0.44149653040828934,-0.31902322902289237,-0.58053216112280726],"Bias":0.0},{"Activator":"","NeuronIndex":101,"Weights":[-0.18490461964901658,-0.12987859987858721,-1.1147144134395788,0.33727537122812945,-0.36701511297171352,-0.0316133161475817,-0.37939729145544071,0.28062442224035689,-0.72759596699899931,-0.13596630610670235,-0.37329874050307682,0.52047929072421,-0.37391723296307861,-0.24409849843960743,-0.34843620587090268,-0.53235837730393976],"Bias":0.0},{"Activator":"","NeuronIndex":102,"Weights":[-0.32178370363180064,0.17889352224427524,-0.84285169595507381,0.12938100184144677,-0.36766388508863279,-0.14449193759813983,-0.33476291543334524,0.055963309441617308,-0.45061087980263309,-0.28995575953784741,-0.31028404092710687,-0.17323518400575424,-0.27337728612204237,-0.038457702831827104,-0.35564573580326658,-0.693070659381986],"Bias":0.0},{"Activator":"","NeuronIndex":103,"Weights":[-0.46839157117138952,0.37695289419523059,-0.50314953628132886,0.20121877059913396,-0.457670976923651,-0.23196785714420012,-0.2239511889370788,0.25551029839413952,-0.238024524083121,-0.19398409557996393,-0.11017698789788086,-0.27931227770078604,-0.5360138939021486,0.039930552764525132,-0.38857107586748424,-0.833540215019232],"Bias":0.0},{"Activator":"","NeuronIndex":104,"Weights":[-0.36343208061893306,0.41296504879118334,-0.36843504140043754,0.2931621890400064,-0.29288184127568268,-0.12563093549360885,-0.20644738274210081,0.39659726514435739,-0.05870747728174585,-0.16196075021106282,0.0539919094437941,-0.18365794577775885,-0.29363796528698149,0.0032791898494550459,-0.38103737082007344,-0.5678453634173164],"Bias":0.0},{"Activator":"","NeuronIndex":105,"Weights":[-0.27560972023292374,0.16050455130663629,-0.23652761152423479,0.42321140191517642,-0.17167880121697252,-0.024199266594537531,-0.12960454442173464,0.32566454636247361,-0.13643332480269285,-0.098315668495708747,0.10382974917989571,-0.2930449284586405,-0.12659033392174668,-0.044825443617380549,-0.30153574314298859,-0.63749973031348073],"Bias":0.0},{"Activator":"","NeuronIndex":106,"Weights":[-0.16084530050983684,0.056552963683927239,0.038896172326172408,0.61237475144006026,-0.062549962579472568,0.02009969575617122,-0.097977195565699476,0.23333932033588434,-0.10021509793142874,-0.025466200799367913,0.085860440156682469,-0.36227265284603966,-0.056661683201503936,-0.0159833295942636,-0.18298944617652915,-0.48882424958000659],"Bias":0.0},{"Activator":"","NeuronIndex":107,"Weights":[-0.130679837765302,0.079276598346234975,0.15497791429066526,0.40217981069765274,-0.036163305779417669,-0.074148375078581755,0.041297843134806854,0.04859912200966332,0.076927040578220862,-0.01485138887580704,0.081896947869586026,-0.36653295617760312,-0.135943701458513,-0.0036048899405781588,-0.13389358233750276,-0.2696035772396419],"Bias":0.0},{"Activator":"","NeuronIndex":108,"Weights":[-0.04091018963272889,0.0051845675662668756,0.10923019342349991,0.20705513693609057,-0.0063249827809178675,-0.06417502683744418,-0.0024535567016555765,0.05423342327398771,0.021053798529949267,0.014213420581221395,0.0091525850693862584,-0.12195817433159716,-0.033758372014499216,-0.023864744552656966,-0.019585678213650079,-0.10588749479421472],"Bias":0.0},{"Activator":"","NeuronIndex":109,"Weights":[-0.036436312285800014,0.028126879254178356,0.015417378516476321,0.17345382075238949,-0.0190345970885307,-0.031430007912030905,-0.0038266268287758271,0.0749036918087112,-0.023686766653215681,0.017009272619183856,-0.016868501210348916,-0.045640664260529991,-0.023698356319022767,-0.0033314559264912393,0.036683944606959909,-0.0079856425582106021],"Bias":0.0},{"Activator":"","NeuronIndex":110,"Weights":[-0.019769318177302327,0.024939960428768882,-0.0022451649128131627,0.013849591521649515,-0.0050077819970627355,0.012305437502274365,0.017095912581730113,0.00595876851269975,-0.0034405227059500772,0.0034240595449619945,0.017035169313606015,-0.02761023957733693,0.0023881657253566409,-0.0076429977188036628,-0.0054370506277923846,0.016727866041853372],"Bias":0.0},{"Activator":"","NeuronIndex":111,"Weights":[-0.013329702036961604,0.010672296152858911,0.00465269540245859,-0.0062319908776995291,0.0099669407910342057,0.010105436235440711,-0.016799208695008661,0.0071117360300192289,0.0125552127615884,0.014524293414759011,-0.016316156351356293,-0.041653803192914361,-0.011960139691337661,0.0097031122635791237,-0.013650001014399098,-0.012760837264231654],"Bias":0.0},{"Activator":"","NeuronIndex":112,"Weights":[-0.01644359425841865,0.0011361851611675737,0.003196539051124013,-0.0036035092048762474,-0.013394503635937183,-0.0042020231754395423,-0.001282287970050637,0.013848868978472033,-0.012431680189047924,-0.012331655412734191,-0.00822009746135217,-0.0070339909238632987,-0.010989646224566305,0.016072268596950511,0.013949001422327745,-0.0042846025004312539],"Bias":0.0},{"Activator":"","NeuronIndex":113,"Weights":[0.0046460770973618115,0.011323207454108128,-0.010420345647921946,0.017162474254487969,0.014951243712544089,-0.011379683936058529,-0.0061716634858799864,5.89185511036365E-05,0.010214311931980784,-0.013681676319984702,0.013683096004835041,0.010185210712539861,0.015465739032337451,-0.012865707408973411,0.016294858484200606,-0.012969736107344882],"Bias":0.0},{"Activator":"","NeuronIndex":114,"Weights":[0.011341920398879978,0.0023804447441799284,-0.013479876629418658,0.0026264033968275043,0.016693949061239562,-0.0055563710449570182,-0.0094222427409905146,0.0069203886043191906,-0.010704400496819361,0.0068274938416852237,0.012034433857380671,-0.0033762423154328914,0.015641739391138484,0.011778778360455523,0.012001639616287325,-0.0076314983701006736],"Bias":0.0},{"Activator":"","NeuronIndex":115,"Weights":[-0.013462137806790175,0.0037481128263106385,-0.015296537216724689,0.0059140516969727035,0.013457115622171927,0.0043293239552048661,0.0083905118124633117,-0.00036146698303640538,-0.0057108597362143581,0.013806627177958162,-0.01370092947842572,0.015445350522311368,0.0095121621937873987,-0.012788396808709504,-0.00985047415554659,0.0014800483655463454],"Bias":0.0},{"Activator":"","NeuronIndex":116,"Weights":[-0.023310487045965549,0.0169792446998536,0.013681526798298326,-0.00925745348692442,-0.00043948697050599452,-0.014990740229299871,-0.0047501032175891406,-0.016127496150129674,0.017057362182677255,-0.009674460513875948,-0.0093439707301722283,0.011408647026789277,0.0066978416311318009,0.0090882975392353391,-0.0087047061387487551,-0.0051422796227488885],"Bias":0.0},{"Activator":"","NeuronIndex":117,"Weights":[0.0038745940670988771,-0.0031650484085068431,0.0015490688546429649,-0.017096632641355643,-0.012757107563218021,-0.014433529513585142,0.025288156413279451,-0.0047566337511097461,0.00871306324639484,0.028543656860061054,0.012694271572220589,-0.012904690335725003,0.0063711320108495078,0.0096389034901013873,-0.026671407119772762,0.013402612533965243],"Bias":0.0},{"Activator":"","NeuronIndex":118,"Weights":[0.0888121421972251,-0.17124282777614022,-0.086781708425770709,0.08491666937211069,-0.056088377699395842,-0.080041631135374061,0.062907139515225877,0.005188605900102619,-0.0045489751701280759,0.021993543686457388,0.050101004739842081,0.030973900970146757,0.049575774719533588,0.034858378439007756,-0.075368270500990056,0.029032261448380534],"Bias":0.0},{"Activator":"","NeuronIndex":119,"Weights":[0.098943161195500673,0.020913340411225532,-0.24750583744521845,0.1374611320516797,0.014553749167730093,-0.29601772342550831,-0.050246900250273875,0.030728564072016462,-0.042076578162968857,0.025662240114476726,-0.10161137643326852,0.13153336471112259,-0.16993426053054181,0.0330859589024527,-0.084702760762558407,0.095015242158334956],"Bias":0.0},{"Activator":"","NeuronIndex":120,"Weights":[0.21077979869200525,-0.0057930150543310244,-0.45957548945529925,0.24062768206935062,-0.0238599156887572,-0.30050319273907877,-0.13148292280710841,0.070300651917701962,-0.094969906897718392,-0.0091894923246364883,-0.18605639306438082,0.531753570705515,-0.21361982153164671,-0.0060639678270857983,-0.20157569915027559,0.32128262808121938],"Bias":0.0},{"Activator":"","NeuronIndex":121,"Weights":[0.19399394058744399,-0.12598647577507457,-0.56798447397833984,0.32625685963812806,-0.005912947853983652,-0.6459574164212033,-0.16444042606455006,0.16666480612591708,-0.19079558779566649,-0.064434444584186776,-0.36991564218209955,0.630619281906664,-0.16304887961536965,-0.077148421657263253,-0.329720715772553,0.37634242727604111],"Bias":0.0},{"Activator":"","NeuronIndex":122,"Weights":[0.10168677524738159,0.29633616103678456,-0.79581141724781845,0.58416480142289851,-0.17984960960707541,-1.0186332894471397,-0.280237514096009,0.28232671001451648,-0.34024204491315074,-0.16584718550283536,-0.40303014056062531,0.8023423832562937,-0.21992919947585157,-0.11255787201548062,-0.57886773892660759,0.52126620625905462],"Bias":0.0},{"Activator":"","NeuronIndex":123,"Weights":[0.4012237568299854,0.17265232171027184,-1.1848405291647282,0.55924292091412464,-0.40285024935961822,-1.0382270005734608,-0.49652003397118538,0.43382301772320558,-0.55943724278702911,-0.097952751109128836,-0.37432966445973348,0.94995618987482888,0.015204089600710818,-0.16311113558547041,-0.56443256708990563,1.070211298245469],"Bias":0.0},{"Activator":"","NeuronIndex":124,"Weights":[0.41313614882366939,-0.083204899029890034,-1.34404057231587,0.32598984715813872,-0.38492998871416867,-0.92457070897248628,-0.64759626144079663,0.51098465902894608,-0.58900051983656287,0.15541433185184197,-0.49913473048989976,0.94116889590978259,0.21026715005592034,-0.3552472589524362,-0.36903843712883788,1.3591036220473436],"Bias":0.0},{"Activator":"","NeuronIndex":125,"Weights":[0.35191658929849678,0.030614530482097987,-1.2552041800002258,0.072195531397285309,-0.29102279259356711,-0.76994132824276817,-0.48411985869379731,0.566117337461114,-0.70820772428507739,0.4181623803844039,-0.70437616061283359,1.094581081706955,0.03974704704221578,-0.4075450925996475,-0.38443245726572961,1.7692029689009341],"Bias":0.0},{"Activator":"","NeuronIndex":126,"Weights":[0.55303510138614176,0.23441415212790617,-0.87577151709670742,-0.31325590149228166,-0.11989232193917727,-0.93373060496362525,-0.4186434110109204,0.61786017798725423,-0.87099758211097678,0.68021528974616252,-0.76415755093859894,0.510965519905363,-0.227869238355257,-0.32523021714541905,-0.2599968392925191,1.3705089574339901],"Bias":0.0},{"Activator":"","NeuronIndex":127,"Weights":[0.39509226712225759,-0.17135445147180994,-0.52318340985089951,-0.658903931998637,-0.02256688875455036,-0.94236783027286963,-0.33564140794787767,0.314388265954754,-1.2732688898364464,0.8303880286483577,-0.81009470744643852,0.97697128208555273,-0.48725891459423032,-0.23783538423635256,0.030365570741494239,0.65535157823590462],"Bias":0.0},{"Activator":"","NeuronIndex":128,"Weights":[0.34772416521164617,-0.56102513677069743,-0.9022498262304165,-0.25238212711219676,-0.010740094667840859,-0.18147824471451268,-0.24476800545254562,0.24565093200912114,-1.1035435563074785,0.4002083782786538,-0.65540873342637429,1.4988817799399416,0.29253958572109312,-0.24568624110069051,0.084496620094434885,0.010258733566309311],"Bias":0.0},{"Activator":"","NeuronIndex":129,"Weights":[0.11221122535030696,-0.18226324891017498,-0.73229263693336455,0.22291529303773067,-0.25625908222239624,0.58884921563235781,0.13144800556851913,0.0701177254887123,-0.62588272482675478,0.23400665720851982,-0.3332143809405777,1.4368239107241294,0.42314789092274313,-0.20793437000194229,-0.018971937315871695,-0.33167869974287517],"Bias":0.0},{"Activator":"","NeuronIndex":130,"Weights":[-0.080237380641020664,-0.0645956399979009,-0.62392225940652757,0.25033146244979332,-0.10618206214675281,0.74744087710674623,-0.12884382515585596,-0.026325803872681627,-0.48679050976738641,0.13898903755699532,-0.25586881400660466,0.98780083439952437,-0.10211052490261661,-0.18778570710263923,0.11522038057699037,-0.41444312939534228],"Bias":0.0},{"Activator":"","NeuronIndex":131,"Weights":[-0.20690950109201378,0.056581414724027251,-0.37371323358163905,0.22020264321645558,0.037157076190748511,0.9512907933961241,-0.173188950152546,0.26059364590099565,-0.48659331142628987,-0.006856249174872109,-0.065115461027663246,0.39503568389777427,-0.28185387985043059,-0.28947764762513656,-0.10729348876095612,-0.61826362042246841],"Bias":0.0},{"Activator":"","NeuronIndex":132,"Weights":[-0.205537262513184,-0.00017785318753861851,0.18390778489142579,0.14159105021517618,0.078163155851381144,0.85535960301912006,0.047489515790786294,0.1790763287740991,-0.16408553007515819,-0.082101940663985629,0.278871508020392,-0.11319858222095044,-0.51058464743213461,-0.24519916652643245,-0.3964873026010009,-0.98035488033781193],"Bias":0.0},{"Activator":"","NeuronIndex":133,"Weights":[-0.1529941941204935,-0.092051305382399223,0.605025075305829,0.041514734258130251,-0.08663766541692712,0.49720954515222238,0.15401198469426292,0.063881608321442171,-0.033810485769759528,-0.14998624923341539,0.32781156887983465,-0.343332719908647,-0.79965750113319567,-0.15359203914248926,-0.67295382740076293,-1.1577767676768962],"Bias":0.0},{"Activator":"","NeuronIndex":134,"Weights":[-0.13382455824299974,-0.012943937010512534,0.44655014268873588,0.12349778391811687,-0.0679347612925616,0.28937334253993219,0.27509470163517985,-0.17214594111730414,0.083505794157809,-0.14725089370932354,0.29055120466680046,-0.45639582594891603,-0.62607006624757133,-0.097430167303084639,-0.34595424448803441,-1.1813174457653579],"Bias":0.0},{"Activator":"","NeuronIndex":135,"Weights":[-0.19140563094411892,0.11772800239189801,0.31512726908497607,-0.048050213373891579,-0.11595219133265415,-0.02649481949610669,0.22875125648628389,-0.16769678840068569,0.26845118195259154,-0.036329852945316189,0.17081249368076454,-0.42927930752916027,-0.30499786313441207,-0.04044278386508255,-0.22333559212526294,-0.53940234647160035],"Bias":0.0},{"Activator":"","NeuronIndex":136,"Weights":[-0.024820713305618854,0.042062130246185526,0.19435085488767137,0.06576266179685096,-0.13134367243600858,-0.076615590317065663,0.090467906651988325,-0.099779322790903638,0.1563417909001944,-0.055340396965564261,0.066881180355542982,-0.31719997135676237,0.056256941436410586,-0.017419823562142181,-0.23318738205191625,-0.19404471327346154],"Bias":0.0},{"Activator":"","NeuronIndex":137,"Weights":[0.047159881509381447,-0.097056148759365288,0.1548489306576486,-0.07568428601335335,-0.029858010972023986,0.028996017008049785,-0.0040040479623738865,-0.11258739076880805,0.054905095478360394,-0.042316251604385229,0.035844169820104813,-0.2275598821231852,0.058239188049316687,-0.035062219153875418,-0.16747668018126607,-0.0025910596358734704],"Bias":0.0},{"Activator":"","NeuronIndex":138,"Weights":[0.025967474668544252,-0.049842355665739295,0.04379382755150163,-0.10279737432228371,0.031959572394917528,0.080519638181710693,-0.025367132802612394,-0.063095730157243818,0.014626717611466843,-0.023397505084612025,0.027632440436806446,-0.094086443116359053,0.021889880142979271,0.00011420156219544764,-0.092942458840413578,0.064882087187022319],"Bias":0.0},{"Activator":"","NeuronIndex":139,"Weights":[-0.0024551967845226263,-0.0011301988872040906,0.0023507507675881029,-0.05462232754679492,0.0077026039457127422,0.05394010266491394,-0.0043773242242606284,-0.0013476418686601155,0.040058015707458927,-0.01242324809455032,0.014165654063384473,0.0002820581164437236,-0.030348380631742704,0.0035832680396612887,0.00028901781294365453,0.024689325144905107],"Bias":0.0},{"Activator":"","NeuronIndex":140,"Weights":[0.016621660115199655,0.0078856860321096581,0.016360456483006169,-0.0087778405578593319,0.017118219917511394,0.00040565465434859183,-0.0064824311432450134,-0.010456967097730205,-0.012610823032444577,-0.017821274166664406,0.015803843242779159,-0.010281635821550493,0.0038863025142817152,0.012519176884666125,-0.001205721194429635,-0.012555869169510204],"Bias":0.0},{"Activator":"","NeuronIndex":141,"Weights":[-0.0043267677308783583,-0.0088862850887703581,-0.0010809267826222997,0.010935481501447061,0.0035136367925838845,-0.010917622692578562,-0.0035270204966947119,-0.015610975578179637,-0.0012539516159052327,0.000723525790635008,0.013266218158806506,0.014942888019446827,0.00860781847467744,-0.013836039577600963,-0.014582459547229457,0.015170988309542846],"Bias":0.0},{"Activator":"","NeuronIndex":142,"Weights":[-0.011033719868015766,0.0071461796876989871,0.012967573443279534,-0.007742045958073698,0.012438308378553028,0.01233801844139757,-0.015469610606804973,-0.01610480040961967,-0.0137818265587539,-0.0025199649152106308,-0.015984152309788727,-0.0014766327727676783,-0.0081329093369209848,-0.014551173777642673,0.0092278958723744156,0.009840288611520219],"Bias":0.0},{"Activator":"","NeuronIndex":143,"Weights":[-0.00045959868948706908,-0.017512472735077604,-0.0093097466583556675,0.0054067466148723757,-0.018017219151140417,-0.011420597120822513,0.0034969421206599337,-0.00396308472500339,0.0052611135419329928,-0.0071640493337055532,-0.0041334218088231395,-0.012934560212956752,-0.013471898329593635,0.00056328900192225578,0.004335900485735027,0.01110564253734659],"Bias":0.0},{"Activator":"","NeuronIndex":144,"Weights":[0.021002668740194498,0.0070720831401164912,0.0028430493969190279,0.011252532784211306,-0.011627862382952161,-0.0019576967864229707,-0.020042060749519065,0.00097788492445385856,-0.0064323403312785106,-0.0087414166380129481,-0.017329154524054858,0.0003307811816490659,-0.013566196290209472,-0.0083181902886674021,0.012635566992809691,-0.002134881577110333],"Bias":0.0},{"Activator":"","NeuronIndex":145,"Weights":[0.044827961436681232,-0.089529552394377043,-0.085368470420767062,-0.051744801469322234,-0.05797356293484851,-0.046669190483577754,0.064438092322295373,0.01817790718832997,0.0035313088900060454,0.047522390132772457,-0.028439547215287072,-0.0027936881788977858,-0.0010784929365603437,-0.0028992208507591785,-0.028183216065811277,0.055830467305513533],"Bias":0.0},{"Activator":"","NeuronIndex":146,"Weights":[0.13104341266863312,-0.0820663043402842,-0.35307677809216048,0.031487598613011543,-0.036146318855108751,-0.19719905323995532,0.11172391692274587,0.072619971055889784,0.021881113129681051,0.10271166635350629,0.098419636471757235,0.19773527155848369,0.023331433263830626,0.088114692387522,-0.075954393506636991,0.12370783722868237],"Bias":0.0},{"Activator":"","NeuronIndex":147,"Weights":[0.22223744559193437,-0.2126999194397475,-0.553020676592086,0.29981101656332737,0.030322023428656267,-0.62480694647712376,0.0680884090126333,0.18190989065411239,0.046700373113298388,0.0639810876865157,0.20175934178913393,0.13954752695280112,-0.0702054718002706,0.12646024354003735,-0.15589845703272623,0.20443374509364076],"Bias":0.0},{"Activator":"","NeuronIndex":148,"Weights":[0.28593646479305346,-0.286612922250979,-0.91385677207067673,0.50722079891541527,-0.048365730564283768,-0.78945150342529846,-0.14745226123805072,0.30815379200818932,-0.044721629362588611,0.027652480013388915,0.024280420134843262,0.7275087427689324,-0.081918977336365412,0.21892714532649313,-0.30039749894883572,0.43453219945590843],"Bias":0.0},{"Activator":"","NeuronIndex":149,"Weights":[0.25010250934463579,0.0091427373239001113,-1.2074176541498833,0.56621034502813927,-0.0037188786338384957,-0.93368829858068225,-0.29303010117844469,0.56399088642441964,-0.025850551371024617,-0.13323534979356483,-0.1203548445235485,0.97562335376384779,-0.034705331119581372,0.20037232738954056,-0.43338189595102039,0.78087325356173265],"Bias":0.0},{"Activator":"","NeuronIndex":150,"Weights":[0.25738908395360677,0.13313609549872982,-1.1969079943048868,0.67399138634382694,-0.41081241411442304,-1.2045880424592788,-0.42064526882886888,0.67614947085300525,-0.24120777345789954,-0.32335168227862693,-0.28957788551499308,0.96944152866423838,-0.37240375286583477,0.28819441904663551,-0.5492657765311324,1.0580206411656632],"Bias":0.0},{"Activator":"","NeuronIndex":151,"Weights":[0.35484540502008127,-0.066372241176678365,-1.1853024493986908,0.69867593521299165,-0.570067618967051,-0.59719658867000125,-0.69024281799794862,1.0193704793507499,-0.62216959044338016,-0.26532482004552083,-0.28259615356316292,0.9534612379966666,-0.065756884537585214,0.13496365325133103,-0.3107318906242385,1.3210050877327928],"Bias":0.0},{"Activator":"","NeuronIndex":152,"Weights":[0.2799147019692747,-0.12154785644683908,-1.0006693657672474,0.035848824645973228,-0.3233357641033322,-0.14725296363553933,-0.67277938626939959,0.87095223756623363,-0.59161581803198726,-0.08500451092904214,-0.5882320535388994,1.153096805305712,0.44475608514320586,-0.15374055788827234,-0.46312609138630328,1.1938520282738156],"Bias":0.0},{"Activator":"","NeuronIndex":153,"Weights":[0.40388989179842139,0.58427371179506349,-0.88268747581254992,-0.095353941267645653,-0.32516090853351848,-0.34558952758268607,-0.53411900503498788,0.92084873420573132,-0.68744882004467023,0.036662210379910833,-0.811242691752667,0.85714836212913559,0.017410584107302219,-0.28425954694849215,-0.51267732517502762,0.85496976630209609],"Bias":0.0},{"Activator":"","NeuronIndex":154,"Weights":[0.75475427645347248,0.60016114186751424,-0.57867691141321609,-0.07723401261988,0.18748899469604927,-0.29919722400501936,-0.66463959341481749,0.8004898210414092,-0.96555156422652633,0.64484628666873334,-0.64387073240241577,0.85431777528522579,-0.23290538732615665,-0.1076102177496245,-0.32087646619910182,0.6469410530078139],"Bias":0.0},{"Activator":"","NeuronIndex":155,"Weights":[0.19488135530175166,0.69531109076174147,-0.40998757316153744,-0.25009202574136213,0.40619904695340991,0.33711267937173345,-0.58116704852493828,0.66920648632641833,-1.2516956327025157,0.86173175179910677,-0.84195409537322741,0.5839073291308331,-0.54274457386994313,-0.21159149648963851,0.30071111702126763,-0.064118078524530484],"Bias":0.0},{"Activator":"","NeuronIndex":156,"Weights":[0.17114068586368547,0.7905249269142014,-0.47934436598026847,0.057148823374261866,-0.10103407425113313,-0.12107452158141291,-0.23859658819100668,0.95403957548529639,-0.85412527051926745,0.70970657822684924,-0.676136004559894,0.80372671572055665,-0.59869063705186532,-0.29451281229863951,0.32621682403453173,-0.66565274947793163],"Bias":0.0},{"Activator":"","NeuronIndex":157,"Weights":[0.25111059730664342,0.651237306842913,-0.37488961109473812,0.17327184656440933,-0.33543522237707046,-0.042506606528781715,-0.389170904176254,1.1196337571191175,-0.90994983384442263,0.26864714003324563,-0.87885209881976289,0.64647469635495936,-0.061340078733189557,-0.32947311470809038,0.35831023356219205,-1.2026477647709166],"Bias":0.0},{"Activator":"","NeuronIndex":158,"Weights":[0.13871235679969648,0.575587485916307,0.32361453264297257,0.0734257272680691,-0.12593596233366916,0.28596155115680033,-0.48389880649855566,1.2904810665686355,-1.1586802997817349,-0.30052370097483072,-0.88689322693936712,0.33969212750738725,0.14640802122858657,-0.56678952063451049,0.24785653122095505,-0.55949468161299432],"Bias":0.0},{"Activator":"","NeuronIndex":159,"Weights":[-0.13071783276471088,0.28011472971376372,-0.1385831772678347,0.13830758516013891,-0.23809931709416615,0.818936784532265,-0.44114159353757004,0.99183647660815177,-1.1736312097834094,-0.48226926229837375,-0.60584877310431384,0.46874030373913611,-0.10598543604898281,-0.59171739878794549,0.071906420829890266,-0.2145557339642043],"Bias":0.0},{"Activator":"","NeuronIndex":160,"Weights":[-0.12026849642299343,0.17214115274101902,0.569410037055451,0.2552905330906538,-0.61151550881550365,0.70723752716676791,-0.22021671380151089,0.76041762227016874,-0.85151582123193792,-0.52386494310515552,-0.1374741308417613,0.26226248376126182,-0.32573137255659235,-0.60924534230403538,0.086474122022413974,-1.2593037839199979],"Bias":0.0},{"Activator":"","NeuronIndex":161,"Weights":[-0.024227014767131072,0.010543754072820162,1.430527480700317,0.085833083312875841,-0.60378967790343863,0.27580421009292266,0.094180413859453721,0.22331311784761088,-0.068635187758944949,-0.44268727289114856,0.22233343052464533,0.23636636662081417,-0.90011027868582538,-0.44319321873228551,-0.42472243240727947,-1.8308544031255565],"Bias":0.0},{"Activator":"","NeuronIndex":162,"Weights":[0.063451624177939578,-0.19248293740751654,1.1078352584719575,-0.39642636727794911,-0.42604777499642588,0.36733526511311793,0.39370962699632372,-0.34915815136250539,0.30275173593422544,-0.31022936511854704,0.29921945823733159,-0.14348791827468643,-0.93061908508546776,-0.097859753313272027,-0.5649733936913528,-1.5996278201628258],"Bias":0.0},{"Activator":"","NeuronIndex":163,"Weights":[0.0999683955568999,-0.201020707853429,0.83831127390442683,-0.44515654877342964,-0.19026451844639652,0.31980106032511296,0.350834836152727,-0.41347335112609657,0.28558676885242607,-0.16730613265952238,0.22954578806254369,-0.51371867330379184,-0.38084299842022029,0.11689903121415847,-0.45849641654084888,-1.1815960718036422],"Bias":0.0},{"Activator":"","NeuronIndex":164,"Weights":[0.15834322514555857,-0.21577642285931797,0.54297599549703557,-0.10525254903727674,-0.10343544555195568,0.49091344132458181,0.32182784232043421,-0.27504310162805362,0.23575702349269742,-0.24268024193927382,0.16215342884683961,-0.72375933203161891,0.03250653474490714,-0.019152207126853827,-0.26051673601526992,-0.71552038025340259],"Bias":0.0},{"Activator":"","NeuronIndex":165,"Weights":[0.16557171369543158,-0.37007431866988688,0.45524442015573324,-0.25795515517082429,0.012060350138791589,0.46209852113569344,0.24630342516209824,-0.34757971453470088,0.30450744163265775,-0.11459724397659744,0.12699111485667858,-0.33003728895510553,0.017808524674106527,-0.043897021794782914,-0.25104474072339261,-0.17885786219986019],"Bias":0.0},{"Activator":"","NeuronIndex":166,"Weights":[0.11692703953597276,-0.18406567678325089,0.12138668881364473,-0.19261504645533059,0.034627013802366151,0.24483248189769816,-0.047395593413408432,-0.18097351128905234,0.091431638478943172,-0.063651974266078076,-0.0018986218429602217,-0.066109834951953023,0.035946123957295691,-0.020569412576271612,-0.11916065602156553,-0.020889845961122897],"Bias":0.0},{"Activator":"","NeuronIndex":167,"Weights":[-0.018746320327238771,0.017041543740755942,0.013226784720024327,-0.017277181154788979,-0.0001813945415319322,0.043768368076483613,-0.014727424439596905,-0.030817642427348347,0.0094747298863022862,-0.042359104330564883,0.0023867731361787081,-0.017708284723423798,-0.01195160950817502,0.016180387059877028,0.00366204738936707,-0.010668138035834917],"Bias":0.0},{"Activator":"","NeuronIndex":168,"Weights":[0.008045379290579923,-0.0070996172596868882,-0.016642172493075785,-0.0089133306443626246,0.015480255074184237,0.0070278913667901829,0.012780588427864746,-0.0032526229967774112,-0.012255984014680709,0.012108342361966564,0.0026758753212116826,0.00993208802259787,-0.010522689813673958,-0.016321077113887354,0.00898154671407815,-0.0036064769605094449],"Bias":0.0},{"Activator":"","NeuronIndex":169,"Weights":[-0.00596583931751821,0.0047250104108875271,0.012255911064120766,-0.0050373982545162538,-0.00391677615049278,0.015785237656872758,-0.011155740121984201,-0.015810527920967345,0.010006105373948995,-0.0033012304520306703,-0.012356898013069845,0.013000154765722013,0.012251810933114872,0.0052876260871342652,-0.0011128939310880541,0.0054521280881792387],"Bias":0.0},{"Activator":"","NeuronIndex":170,"Weights":[-0.007375634647681339,0.017099497302192682,-0.017084362352159571,-0.00865833013707264,-0.0079202649334317345,-0.013288437479892763,0.0032231521420247166,0.0010961152053420597,-0.011512032473161063,0.00068425805451840041,-0.0077040444119601459,0.018135761200555371,0.014039237166460395,-0.00578329282104596,-0.010439421190359491,-0.0013986731237326483],"Bias":0.0},{"Activator":"","NeuronIndex":171,"Weights":[0.013144243912061959,0.011695909306632538,-0.0023273810475387784,-0.00034840727644730197,-0.0079760366882946389,-0.033927270706009122,0.0040872392628343293,0.016656937386372757,0.0596953193590022,-0.0088400117164281287,0.028379982066002087,-0.0071706340102744926,0.0081556853924196013,-0.0013928611613839225,0.00232781482602533,-0.016599067823383835],"Bias":0.0},{"Activator":"","NeuronIndex":172,"Weights":[0.028641837647861428,-0.2279905799019237,-0.0067598841984640914,-0.058958376130721031,0.0067314311720713628,-0.002405386719994961,-0.019964117936594104,-0.0102039665401885,-0.0064406549512435159,0.054788422521103913,-0.0010719030876873781,0.0048268242962694321,0.029291555101291115,-0.014981875018710783,0.005664482228343537,0.024233406292372014],"Bias":0.0},{"Activator":"","NeuronIndex":173,"Weights":[0.13693638330419108,-0.3228443479789796,-0.16123146036362188,-0.062012481912028614,-0.019828289960769609,-0.11614415932540378,0.091929478881318014,0.034695536366637039,-0.02365869913794456,0.1353005676482098,-0.10305105973861892,-0.065999052799346175,0.011915996487704677,-0.069472088948721061,-0.042364213359636839,0.069774256457814737],"Bias":0.0},{"Activator":"","NeuronIndex":174,"Weights":[0.2790257915044787,-0.70268440605243077,-0.39148343116172524,0.088456926801095168,0.10716829536856169,-0.30815392192198537,0.10114227866063359,0.19657695152599497,0.18229720902350879,0.17681943209540354,0.1246468047865968,0.10878409699464611,-0.044271740598956839,0.0845022795209934,-0.065261160111185823,0.017180895674300756],"Bias":0.0},{"Activator":"","NeuronIndex":175,"Weights":[0.4502947358777013,-0.73245611010391221,-0.72575456659970738,0.24814797645751971,0.13433208379876718,-0.863638640112498,-0.001610277823962708,0.37141143600791837,0.024844696063832959,0.16482383922481653,0.32966137748688057,0.38699051393562117,0.036870848599131589,0.38111354201122272,-0.12862960477313448,0.039476573905492952],"Bias":0.0},{"Activator":"","NeuronIndex":176,"Weights":[0.46105059150380223,-0.042504778917573989,-0.9258965109386923,0.42156646995074887,0.065888215509523215,-1.0936680791248603,-0.2571984706426248,0.60451115992980864,6.3081733493700756E-05,-0.044739467416739766,0.12882677533216608,0.86113880982480617,0.090956428014185825,0.36907681925055164,-0.36213352465207976,0.075005600171436038],"Bias":0.0},{"Activator":"","NeuronIndex":177,"Weights":[0.61252722301869789,-0.064875501551854078,-0.905983954804795,0.0033167325452990639,-0.13575796437635246,-1.0419023521095985,-0.40593830560860261,0.69994300893980654,0.11166548986120806,-0.28152291173636396,-0.28448467330491067,1.1950905593398626,0.33714880073934206,0.59292462712473848,-0.35910416692414326,0.93107647866306542],"Bias":0.0},{"Activator":"","NeuronIndex":178,"Weights":[0.32584006494160606,0.1613154603309726,-0.74540851026270238,-0.071678037295508562,-0.54327329029517613,-0.65858305964861252,-0.46973148247104457,0.96133235620650459,-0.2005515091061727,-0.43766880952998438,-0.62898937535779842,1.1644424732392396,0.27282566498626332,0.65914708303351732,-0.23292264055373324,1.1564397069390564],"Bias":0.0},{"Activator":"","NeuronIndex":179,"Weights":[-0.14088035492639983,0.13506581666960993,-0.816691120035321,0.23328831273977388,-0.35655952398669166,0.17529789114744287,-0.39072823473689067,1.0077330925308183,-0.46406248778558862,-0.66751744417975989,-0.43203554868558941,0.97793823361192667,0.40235145593186239,0.274635917140484,-0.073821721666293152,0.94619039725456289],"Bias":0.0},{"Activator":"","NeuronIndex":180,"Weights":[-0.30650547230504704,-0.41740399376532394,-0.9459390747904719,-0.51052426370572879,-0.21000897559267467,0.10442211094032798,-0.29779599346108054,0.75969489796301237,-0.93901134324297164,-1.0046761483368654,-0.4540363747870001,0.61465317414563181,0.43065110855203187,-0.16387522020957671,-0.46063881247085631,1.0550046458527229],"Bias":0.0},{"Activator":"","NeuronIndex":181,"Weights":[0.0493052642697782,-0.74908398665446763,-0.576230149661562,-1.0015438992042032,-0.02924645106876549,-0.28793092281648019,-0.54516708031851235,0.75796405791274946,-0.9717079325368021,-0.68872575887196763,-0.49827601022916806,0.62288067611961107,0.13098747095534552,-0.054863450118129285,-0.38404288211940346,1.6334878606872898],"Bias":0.0},{"Activator":"","NeuronIndex":182,"Weights":[-0.078349702766339319,-0.59608190512635184,-1.0692004610418602,-0.645784933284896,0.44242186492938468,0.19563766051029527,-0.50986801003704918,0.5268925370936326,-1.103812287032792,-0.20964262235943931,0.0069634604894013175,1.105638705896556,0.45175899557441518,-0.11745624953452462,-0.039106695054288335,1.9642711606634873],"Bias":0.0},{"Activator":"","NeuronIndex":183,"Weights":[-0.46358961348883954,-0.50170067768718341,-0.78111252650702034,-0.535745247204878,0.26595361696819708,0.33055238219383476,-0.34858347487836905,0.19921187683906766,-1.1087935722967743,-0.23025735407098261,0.31793532047557588,0.30768229073210379,0.27750343945826272,-0.5885016982733704,0.10822380666265845,2.555747507222236],"Bias":0.0},{"Activator":"","NeuronIndex":184,"Weights":[-0.32131388508057984,0.28302185075708197,-1.1186763811155225,-0.070721028241195388,-0.0937631198550467,-0.33750745369097368,-0.43278368414916774,0.10480760554647806,-0.20598970745947243,-0.49025949220432474,-0.10604323748813238,0.19956736680106563,-0.007003772795496882,-0.61966506426319046,0.043165719446503416,2.109761679036489],"Bias":0.0},{"Activator":"","NeuronIndex":185,"Weights":[-0.11465968768510114,0.12454127318867726,-0.73504555418336537,-0.22768232928349333,-0.76388736366090881,0.12637389349829076,-0.1635722966936726,0.11407071904929143,0.24370715361690543,-0.47733140757454617,-0.39824396302484044,0.55805820482708413,0.73489662368866016,-0.37245413669003796,-0.16311883401668281,2.0957105613801428],"Bias":0.0},{"Activator":"","NeuronIndex":186,"Weights":[0.019699363297166445,0.16674222974341782,-0.08785173969764587,-0.26968392555436749,-0.59098347087958281,1.0523144741515105,-0.057255443472744451,0.68016757970385344,-0.086188686895032923,-0.708869034773008,-0.66250131584957483,0.49104615979786315,0.82188884419660313,-0.2443357044724013,0.13247360624659968,0.78019020264246963],"Bias":0.0},{"Activator":"","NeuronIndex":187,"Weights":[0.36595483325711747,-0.094014472057752485,0.1153436824581478,-0.25530456297509996,-0.42091265089071095,0.95558129747566034,0.086062219853205266,0.67563102321951773,-0.41662999685390356,-0.699600673791347,-0.52981641868354434,0.47111970345367277,0.23354285529455435,0.27732333944729248,0.5439817159344863,0.26279469062146277],"Bias":0.0},{"Activator":"","NeuronIndex":188,"Weights":[0.15962619994266455,-0.43014054594714174,0.2888548878572,-0.60480581209903628,-0.51627756653529788,1.2086451640911309,-0.17109287834302317,0.30900587927999978,-0.70788198579350581,-0.59824895170955283,-0.58550722236087882,0.29757971974061259,0.34459403382561504,0.0073819695920114749,0.74740731093720814,0.38388853911101189],"Bias":0.0},{"Activator":"","NeuronIndex":189,"Weights":[0.4309546936455379,0.04545511005004528,0.79655100433418435,-0.89509851986529609,-0.55858349725499212,0.80809325987486147,-0.003535515021614651,0.21924110839226313,-0.50484774380969621,-0.53271045719624244,-0.55147468063294,0.15322882424935641,-0.50529292537018711,-0.37532539454108088,0.30424342006393118,-0.25160248576288413],"Bias":0.0},{"Activator":"","NeuronIndex":190,"Weights":[0.45066108850027087,-0.010150708128892478,0.85513310245320351,-0.86656311143105147,-0.62821539789215841,0.91819572453533216,0.0717239630780435,0.043852821293398181,-0.13517916726193935,-0.40846483064835315,-0.2309899539719544,0.071030511996297743,-0.38646048158021756,-0.03534180709159454,0.17337928947456765,-1.1707127623965365],"Bias":0.0},{"Activator":"","NeuronIndex":191,"Weights":[0.2144516850351588,-0.43005116771629381,0.93868523070560328,-0.83036214565779665,-0.31630793559873671,0.8703881225716843,0.2203365677891399,-0.1372832865741192,-0.25957501827611296,-0.39271906735769335,-0.14059254382017519,-0.65061397358932549,-0.00601556198719175,-0.051252083657980119,0.011666352703493007,-1.7842146331996704],"Bias":0.0},{"Activator":"","NeuronIndex":192,"Weights":[0.17121151182611186,-0.41278703670328409,0.98256026006655739,-0.54080633441875336,-0.069777628735344613,0.663019184363528,0.27233818394062609,-0.25711729341981893,-0.011265895424198044,-0.51330097982083922,0.17804452546088351,-1.0910469565743592,0.53133603154679743,-0.22906912710162533,-0.16167245204366992,-1.208713009827928],"Bias":0.0},{"Activator":"","NeuronIndex":193,"Weights":[0.31111740210449446,-0.46470474978861165,0.86999182667455344,-0.58698716309351373,0.046936461344699344,0.64268882552373352,0.12785183608086412,-0.58781149759058249,0.13864532187681539,-0.38783040704297184,0.054542385469303713,-0.74640170524089522,0.61729877239793673,-0.28657660651087674,-0.51603182700890748,-0.58070021512297443],"Bias":0.0},{"Activator":"","NeuronIndex":194,"Weights":[0.31900065129494221,-0.25935679488129365,0.28932554572491659,-0.2570329633137946,-0.040469434509497644,0.38441268175627141,-0.1579092828027702,-0.42491390748328223,-0.14792878574781837,-0.23401910427033468,-0.12685472394107297,-0.222846890758034,0.20418607119248397,-0.25525846966522314,-0.17914934574633617,-0.20451309161848483],"Bias":0.0},{"Activator":"","NeuronIndex":195,"Weights":[0.060941180394279738,-0.016122073884415833,0.10215936263457753,-0.00869698125074899,0.010519603382230069,0.07310618687500603,0.019536544634210395,-0.14700782292822731,0.022982489852195604,-0.03206231436888355,0.0037509681923314419,-0.013113316421910321,0.044267276231499647,-0.0025180702194768437,-0.128227310059425,-0.0702713743447069],"Bias":0.0},{"Activator":"","NeuronIndex":196,"Weights":[-0.024622705672480961,0.020776689129096203,0.049260280521537886,0.0062786269846480686,-0.016818684930337471,-0.013383505923041689,0.041691477818770348,-0.058984581586712846,0.03137416986363515,-0.012726852304547551,0.027713936468641457,-0.0040746449547895162,-0.017823935298983476,-0.011949560812294086,-0.037716700822047429,-0.026002931756438624],"Bias":0.0},{"Activator":"","NeuronIndex":197,"Weights":[0.004410539998254,-0.0016207453066639733,-0.00042102960175442966,-0.000417174583406603,0.010704922095364765,-0.0056155027951653768,-0.01455972250667383,0.00057656982819386546,-0.013099093164027903,-0.0024043651404872814,0.0037414561333391754,-0.011845860436194127,0.014679870984204634,-0.0035850807521985266,9.0117828819527839E-05,-0.0068048007243774163],"Bias":0.0},{"Activator":"","NeuronIndex":198,"Weights":[0.0030164630519100249,0.010306137782061232,-0.011367821618744221,-0.015449277390230991,0.0074746206001595657,0.0021191592581852204,0.0074802509737764526,0.0014347095143685887,-0.016363387219558906,-0.010518473537212051,0.0043891426165004266,0.015638949453447248,0.0074448447466721884,-0.00041474088520527397,-0.010677660171555225,0.014535321984200471],"Bias":0.0},{"Activator":"","NeuronIndex":199,"Weights":[0.00061269974689765036,0.029872613476691737,-0.0014692852956836914,0.0015821982212752589,-0.004879696157299546,-0.054477964797754012,0.057796469581280221,-0.014920636787979478,0.087593608844663232,0.076798911100109737,0.023809932948337463,0.014987449528488121,0.019305479318386238,0.017929390282394493,0.0036554532818218687,-0.012361586606751303],"Bias":0.0},{"Activator":"","NeuronIndex":200,"Weights":[0.054137614462023913,-0.438655299285146,-0.053670697421551811,-0.076003802952141888,0.012461059065195302,-0.06198995997778866,0.027119904291270532,-0.049904841317925476,0.082539374392786427,0.17381360250946731,0.056768629930816737,0.024928363782528284,0.078207361674847653,-0.081902966124782053,-0.0044667620319715374,-0.030632486311220387],"Bias":0.0},{"Activator":"","NeuronIndex":201,"Weights":[0.28785990812309581,-0.51580885199837812,-0.17570066952526925,-0.14537989663751938,-0.097133035132573223,-0.41412353303571764,0.11150687277452016,-0.0056887118328541883,0.052667167864596312,0.29797464087262221,-0.15851185224029882,0.12038710535287306,-0.060141268100101439,-0.040158639054693447,-0.07968943731322134,0.0850999968700277],"Bias":0.0},{"Activator":"","NeuronIndex":202,"Weights":[0.6047606925792125,-0.80374925901254179,-0.24576405017501021,-0.28024173420799564,-0.0967612655671496,-0.7495665546511171,0.029421614504291517,0.062386315371546631,0.20145348296060239,0.31397781993863816,-0.083008815880436293,0.31772443936738964,0.053896506728571533,0.10635220937043202,-0.094166605935843473,-0.048281248480818439],"Bias":0.0},{"Activator":"","NeuronIndex":203,"Weights":[0.80123087226329515,-0.43407854500774168,-0.4071400497977174,-0.056930501761387073,0.0361077164723461,-1.2900705796981664,-0.1457627875089835,0.37711204960379258,0.12355485960370495,0.26055055944215028,0.14584197874781929,0.84007030190834386,0.324246938325402,0.58115337956445379,-0.031802512308466417,-0.35961300113313838],"Bias":0.0},{"Activator":"","NeuronIndex":204,"Weights":[0.94366596052325957,-0.44624133823739681,-0.4814141822814838,-0.087043445722031321,0.10009081661547881,-1.1898548198479961,-0.36938933580763283,0.51326799507814069,0.26172450043474649,0.099187720128953355,0.1569338301537985,0.804796059896278,0.56210822256662885,0.79289154657611527,-0.2666791719288838,-0.041562692111189431],"Bias":0.0},{"Activator":"","NeuronIndex":205,"Weights":[0.7800926264857484,-0.0994184496087917,-0.26549857435325669,-0.16164392893067009,-0.087608374860815255,-0.68427254258114656,-0.42481348673180658,0.59409174331905179,0.2597278009587522,-0.21684908171858577,-0.31046865159879028,0.88129223941142953,0.68013039869723213,1.2337709234359329,-0.47851663807157713,0.40810324371122109],"Bias":0.0},{"Activator":"","NeuronIndex":206,"Weights":[0.51330784815589381,-0.024098665733976555,-0.19130371410033306,-0.71525491670366326,-0.15272623916535155,0.30588050664124306,-0.18411676519591044,0.319987104924622,0.27788202520331651,-0.57183283605073965,-0.10061480807153127,0.78628327278127308,0.66364722571922086,0.91915725541046778,-0.30483420515627391,0.71585946167109815],"Bias":0.0},{"Activator":"","NeuronIndex":207,"Weights":[0.11710668340936863,0.14054359458057214,-0.6294619004620422,-0.51501807079907791,-0.28833752098613963,0.60519891792815383,-0.24118800061250464,0.094938569240504686,-0.099530428839060936,-1.0929073710535728,0.18561291879521852,1.0236136546927552,0.96834973996064433,0.856257860056438,-0.26101227279214456,0.96120988949138308],"Bias":0.0},{"Activator":"","NeuronIndex":208,"Weights":[0.25460474111271664,-0.3516610632600084,-0.38724182159085913,-0.82172127416938412,-0.2900832381820076,0.30532940543764592,-0.268378747140008,-0.11163358263463118,0.098360929733490463,-1.5192045460678973,-0.030468680089824271,1.2854398050643063,0.85585016018793292,0.838806652088004,-0.43929129995298483,2.5373212559598515],"Bias":0.0},{"Activator":"","NeuronIndex":209,"Weights":[0.032066659469555392,-0.72751455954886179,-0.20492311499453317,-0.80586170716652361,-0.42614794459672845,0.41172158102420275,-0.20744086239691045,-0.37436382614532837,0.05573263360907766,-1.3220781688515237,-0.14621197457503929,1.3900062863865286,0.51093716374669251,-0.0797788252623727,-0.37718160542460527,4.0252593989929109],"Bias":0.0},{"Activator":"","NeuronIndex":210,"Weights":[-0.1635523737042652,-1.0417203831217814,-0.97066975412961565,-0.706561196396439,-0.64800880143590422,0.95589318159630321,-0.2541543149274344,-0.62706752452950143,-0.17518515783519562,-1.0842465089155231,0.23285694901615533,1.1189363608725333,0.89072225857702247,-0.643467681044841,-0.17532426251531433,3.0844473615185479],"Bias":0.0},{"Activator":"","NeuronIndex":211,"Weights":[-0.29115730822615959,-0.68408784942728373,-1.0933884992072438,-0.8617858028581532,-0.45319654281217303,1.0317369902047473,0.0080972755219686,-0.695356942853584,0.13463542539028034,-0.96957728436924551,0.24165019133511911,0.73575886119031886,0.37236655530343665,-0.77549649266998455,0.11496523297580326,4.72680504644285],"Bias":0.0},{"Activator":"","NeuronIndex":212,"Weights":[-1.1170510043104549,0.14126357567226108,-1.2918585136177476,-0.52745738243507234,-0.61611564403064023,1.17547754243197,-0.27500342076212458,-0.30547125018667576,0.26078864641317007,-1.0463235751484592,-0.098860603807446337,0.70334053692566567,0.7224616676694261,-0.83411124688124771,0.21920564668877704,4.2333442059155866],"Bias":0.0},{"Activator":"","NeuronIndex":213,"Weights":[-0.75684883232012257,0.25983692100265721,-0.9350826455933805,-0.52474515991365445,-0.522157044872914,0.98037088557750041,0.071128332560723914,-0.77078902491211054,0.82719920812894288,-0.59778602701147054,-0.042917746508962566,0.35706737308675474,0.39561583869243505,-0.49498582091689125,0.422846995083705,3.4083240293692283],"Bias":0.0},{"Activator":"","NeuronIndex":214,"Weights":[-0.22254145888456048,0.023534990089232963,-0.37261867583078351,-0.58379751633194155,-0.20049672106648103,1.4077233699199858,0.0084338788696431324,-0.26694793054050592,0.39300308749504015,-0.5252204078881455,-0.076694068083387426,0.681703079556789,0.733497284412278,-0.34351383894606774,0.96358273396292415,3.2634112771220196],"Bias":0.0},{"Activator":"","NeuronIndex":215,"Weights":[-0.018922457515937227,0.31694705161164738,-0.12115422515966029,-0.84750596859659189,-0.20284951042420851,1.37856577900691,0.3625737098742628,-0.16738507670655997,0.26266572319665321,-0.38627120303796847,0.299962240770758,0.53041317912933661,1.1694952258911739,-0.022926222241828633,0.8116367971485986,2.0038701910898173],"Bias":0.0},{"Activator":"","NeuronIndex":216,"Weights":[0.05084598604744639,-0.0745869096151965,-0.21472022699461063,-0.97720145317748153,-0.11464865130767103,1.1687629188530493,0.44234606177831914,-0.21841298279055887,-0.015921493013675063,-0.22724229591032641,0.0092894677567776345,0.75630923378541925,1.1706177873849415,0.4803764598479433,1.0295619040270105,1.2352764551079261],"Bias":0.0},{"Activator":"","NeuronIndex":217,"Weights":[0.52979371724664792,0.023786737699182305,0.52731812979287951,-0.97457077735455233,0.065715008513428957,0.83950172657515987,0.34280184441846867,-0.17480524396893066,0.10593551790519401,-0.29345027027621184,-0.15695508444996181,0.23075909781518453,0.53848050988234142,0.38368720397786182,0.81763222152017456,1.0099029720844053],"Bias":0.0},{"Activator":"","NeuronIndex":218,"Weights":[0.592099165873168,0.40344244655711581,0.55822482297815923,-0.92640500101261092,0.047782430009893052,0.86374104700239751,-0.11064678365803973,-0.011285110736073486,-0.185661661469413,-0.51963029981784958,-0.44031150688074966,-0.37956088395966481,0.29693303418044442,0.362213517065551,0.51589315653002221,-0.099537430988236683],"Bias":0.0},{"Activator":"","NeuronIndex":219,"Weights":[0.28690233462594206,-0.331447400317047,0.90962888667858044,-0.70915445341048455,-0.15334786442242282,0.52699350905584452,-0.048088758092184887,-0.12165577972172123,-0.1615749720813256,-0.550198900696607,-0.20975677421128172,-0.655154581193194,0.42525686902135262,-0.097346279972697486,0.15764099402126378,-1.1785433811249184],"Bias":0.0},{"Activator":"","NeuronIndex":220,"Weights":[0.26149732488958216,-0.51641579961160777,1.1757733383281268,-0.88729572190742378,0.047992342642404429,0.411090612734206,0.089830138811814592,-0.44931188817938889,-0.34414775355910937,-0.57648351709242662,-0.35361843887431371,-1.3134974807937905,0.99146564230521739,-0.24598626444932259,-0.24647481037480726,-0.91701244869937426],"Bias":0.0},{"Activator":"","NeuronIndex":221,"Weights":[0.40602687431111167,-0.66302518290305712,1.1696333025607135,-0.68177014095219479,0.1820726431786836,0.36776276561914717,0.0630594801052084,-0.66507100984324985,-0.29232820657762876,-0.38135311171341751,-0.26096114779435076,-0.87044533088984521,0.81989164661858882,-0.32857530145816549,-0.73830661260576735,-0.62316915962026664],"Bias":0.0},{"Activator":"","NeuronIndex":222,"Weights":[0.46255181625536368,-0.49236394797563732,0.57265317365605239,-0.27474882786490518,0.23200473029468296,0.28734083351487139,-0.07207200641383732,-0.40321519393570732,-0.25701865048135975,-0.09868960142363048,-0.18423300374977158,-0.21314692651249081,0.3512590596294235,-0.26126954119458462,-0.28134593646720879,-0.17230535125735977],"Bias":0.0},{"Activator":"","NeuronIndex":223,"Weights":[0.038209676060459413,0.015124604688342091,0.13410508143908786,0.026035638248837908,0.089587191881820613,0.041592492393226654,-0.018763056892545385,-0.045002197947910848,-0.028182772715617865,-0.038917824984607066,0.018991882919268961,-0.0070663317073231206,0.16859952896519242,-0.051982504114194958,-0.11130533711467126,-0.071741156080316],"Bias":0.0},{"Activator":"","NeuronIndex":224,"Weights":[-0.00970122975096073,0.016066500422932947,0.016191101609011053,0.020609666888200165,0.0026348447446333731,0.0048735165838832894,-0.019115652202756944,-0.0060768896706890575,0.0031383129446333532,0.0048056854432168596,0.012108328509052324,-0.014495668792487084,0.002284030078679015,0.0011600964121374886,0.00076408296417807562,0.0013729719632044656],"Bias":0.0},{"Activator":"","NeuronIndex":225,"Weights":[0.014839293171925588,-0.0048532001370121449,0.012226698822695892,0.0013740899036613474,0.017795209975809127,0.012557665835508254,0.010964123622181987,0.015752026191429892,0.0034544550200782038,0.0025861211914149059,0.01222542822057654,-0.0047218037782822868,-0.0063704123107785936,-0.011202074502281759,-0.010387341845378302,-0.013610316329065964],"Bias":0.0},{"Activator":"","NeuronIndex":226,"Weights":[0.013957025900109438,0.029017205345214837,-0.0044816838748825277,-0.011997109318222914,0.01716834753727552,0.0053622098606693064,0.026806671221774513,0.0094726094458688764,-0.014145116623452102,0.021863873828722326,0.029344566743712056,-0.0010012863775111013,0.012212610623571341,-0.011413811636197374,0.015475116116961953,-0.0028076626137886482],"Bias":0.0},{"Activator":"","NeuronIndex":227,"Weights":[0.042938271563048837,0.036586150605612586,0.013651870995154832,-0.002622926636969673,-0.02117649667820995,-0.033618918172401362,-0.0036938880405954742,-0.064991464443834038,0.13933815235984087,0.073343979285016861,0.0747340220660522,0.023942467906108926,0.020086962523851642,0.016216306231362276,-0.016205796773265637,-0.15374492144484261],"Bias":0.0},{"Activator":"","NeuronIndex":228,"Weights":[0.089351978701155382,-0.31894237146009674,-0.10271460845886561,-0.07663830184138061,-0.036980492790855413,-0.099998563848792174,-0.025792636400192966,-0.10825394820547403,0.10858913483762092,0.1499454924485695,0.074207997050755287,0.11110473974892068,0.11685543777610083,-0.098772973792982666,-0.012471863887221872,-0.228966082898563],"Bias":0.0},{"Activator":"","NeuronIndex":229,"Weights":[0.40666970052441603,-0.55211727941369526,-0.18456092161890086,-0.22540570712153157,-0.18187644036828637,-0.45287410752412066,0.0041184505056810223,-0.025994668971055665,0.14791023223372141,0.45510884489522108,-0.13961565187185335,0.12981273747347807,0.014058778385129573,0.10664308303263857,-0.12735511538707669,-0.16206500596375112],"Bias":0.0},{"Activator":"","NeuronIndex":230,"Weights":[0.66870688277160006,-0.53754561386824706,-0.10679678540577539,-0.32660910522255637,-0.14231231702833766,-0.90965463832687554,-0.043272075206379663,0.015762558040242777,-0.059682701411139606,0.54674152265363929,-0.10992759329353104,0.22719316717153193,0.23390520779972934,0.28573896281178,-0.14910485753974062,-0.46749233021838055],"Bias":0.0},{"Activator":"","NeuronIndex":231,"Weights":[0.97636897886944918,-0.36565944311428017,-0.071978483472270177,-0.01650065793912053,0.087623271499497266,-1.2085825005022872,-0.18447245212931185,0.22177273781296433,-0.16250746142747302,0.61337516243762091,-0.15604992703991083,0.43708876136814712,0.57897816375256228,1.1299282411467304,-0.14530573649532608,-0.24450498430418313],"Bias":0.0},{"Activator":"","NeuronIndex":232,"Weights":[0.83108395411806468,-0.040064884552450955,0.052921893672651182,-0.16932347504633885,0.16745915679757892,-0.829723734547118,-0.11401296223477589,0.37599309143795995,0.17679073187668037,0.41270850627846245,-0.23373304214921908,0.54825948926737322,0.90117521533433853,1.664277103198504,-0.36185340604528338,-0.16116447698361877],"Bias":0.0},{"Activator":"","NeuronIndex":233,"Weights":[0.49710193035362304,0.14305316333324691,-0.021899690349199273,-0.037124431908017605,0.16873639767403223,-0.10908099747313421,-0.042991816301925417,0.50565204183435464,0.36747306749320885,0.0031537771609676667,-0.28451942536294639,0.49639275297061586,0.98267568287223006,1.5833884789196422,-0.56880801334943953,0.085222536081266259],"Bias":0.0},{"Activator":"","NeuronIndex":234,"Weights":[0.379118168731344,0.55028514843055309,-0.505781815390198,-0.34675616637074119,-0.093713547016695847,0.623151006206311,-0.29102020568960618,0.050263116407287575,-0.0705834010314622,-0.021246316553713725,-0.27981051708261723,0.38945279710431036,0.702079541155631,1.2366418385015956,-0.30411184434658128,0.12061266796461011],"Bias":0.0},{"Activator":"","NeuronIndex":235,"Weights":[0.59637367474990322,0.34139998583334225,-0.89173649124813215,-0.49058575615598227,-0.25823987244824825,0.58285438539622514,-0.38765891154618631,-0.12600283557131958,0.37248748679382643,-0.31627838435591032,0.14471095595837566,0.63694519737475075,0.77590173884541536,1.6865498362454441,-0.43014675760688115,0.75490393716750914],"Bias":0.0},{"Activator":"","NeuronIndex":236,"Weights":[0.80045398968926817,0.74001067696626588,-0.58215173989756441,-0.39030921009666608,-0.068048484725360708,0.65583256057451966,-0.53408034835716356,-0.49912007250352036,0.71975086105794517,-0.78456719974054934,-0.39943101209642662,0.54227384498801534,0.78729027069149626,1.192491982132369,-0.53388470370244856,2.6795399533699977],"Bias":0.0},{"Activator":"","NeuronIndex":237,"Weights":[0.68092044812973007,0.40065050979948713,-0.38143277952217158,-0.084391951120623962,0.039155526480635958,0.22041522905636149,-0.4720776386877808,-0.55122157305514585,0.48381243844887845,-0.66366820773789459,-0.821086717455595,0.61575657100466175,0.32377140806890248,0.41294414069516155,-0.45386912672517388,3.311232465812489],"Bias":0.0},{"Activator":"","NeuronIndex":238,"Weights":[0.46361651846889262,-0.68475139089426007,-0.43194610036074027,0.13616005736215539,-0.13536872401545547,0.17746982683840212,-0.7347172228660509,-1.0431955292292532,0.37895917790386752,-0.35852784876670846,-0.36305050064064576,0.0054367396394708533,0.59093672251510709,-0.13793153313700959,-0.27788379420892628,4.0073704012012934],"Bias":0.0},{"Activator":"","NeuronIndex":239,"Weights":[0.36733902591244305,-0.58345019379951835,-1.3062972911088042,-0.40425122621149934,0.018946364329995274,0.22723616341031966,-0.590478762907954,-1.0536829713496583,0.029320122592583368,0.20318557289062159,-0.64341582607168346,0.60050261791161974,0.71314073104296571,0.23656059931931059,-0.14509155128524584,5.5245047216000449],"Bias":0.0},{"Activator":"","NeuronIndex":240,"Weights":[0.44901710486727153,-0.49478307584761183,-1.0320377532820031,-0.73727168894207518,-0.16831990310092018,-0.56895081863350261,-0.052463587792787064,-0.609495819848807,0.22139903793058097,0.4311200032860199,-0.5508235467242123,0.58340211357180072,0.4446456920812813,0.1825990393106387,-0.045606375493735876,5.101462464319007],"Bias":0.0},{"Activator":"","NeuronIndex":241,"Weights":[0.621997213910534,-0.21494382904630682,0.018875864156169039,-1.1756330888110471,0.3152647566881539,-0.38901145480537791,0.26344200672561657,-0.48937190124999008,0.6076467970783942,0.070203400824233167,-0.1733533965427751,0.4060045419593995,0.37833742892995087,-0.09677261470297914,0.67216675308494178,3.4152438682524919],"Bias":0.0},{"Activator":"","NeuronIndex":242,"Weights":[0.35629091648919359,-0.025118358012430592,0.47094554291792973,-0.4753258656983117,0.68819535645744834,0.27686999706490656,0.44396706307254824,-0.72447758791373607,0.43735573618717433,-0.099502255800424336,0.3448011141619951,1.3485680800268609,0.5717272944311691,-0.33360359851442906,1.0050146227213754,2.7670852324480322],"Bias":0.0},{"Activator":"","NeuronIndex":243,"Weights":[0.551783076594248,0.41552972403360783,-0.16868320673041609,-1.1449139109408286,0.75427612697772839,0.514088421266009,0.33893470820594218,-0.16538439819553954,0.090191684995630711,-0.53527536690769384,0.66394868053450551,0.714213721266217,1.6848692701690005,0.13402489887239954,1.2032842139359832,2.52100616316385],"Bias":0.0},{"Activator":"","NeuronIndex":244,"Weights":[0.28799758231290407,0.55639830105385912,-0.19062084213032929,-1.099871763255565,0.2321195999841007,0.076917510157335653,0.19053182908076141,-0.1172890655519908,0.29832608409264322,-0.28549423969253068,0.41952346670229063,0.26424230106368657,1.3816520667010077,0.39010203579076425,0.71632395264451854,1.3167191597692443],"Bias":0.0},{"Activator":"","NeuronIndex":245,"Weights":[0.52348333812752745,0.297297140213259,0.24477316910591845,-1.0571694391645952,0.505512390153402,-0.091876153312784953,0.073741062992328743,-0.19548330983983916,-0.37580160457700595,-0.525920259443927,-0.2365487204379052,0.41123534969050057,1.0459909981656224,0.39379103744404764,0.27835236546414366,0.33721191439682052],"Bias":0.0},{"Activator":"","NeuronIndex":246,"Weights":[0.67721647241029226,0.292646504289921,0.48548095204463049,-1.4747511198289576,0.3968971719224112,-0.41291569936143019,-0.13441898107406536,-0.11786552597663616,-0.36771303836978131,-0.67404474704799677,-0.27224959098775,0.077019612030977083,1.2832815997869562,0.11577598727463208,0.051533367836299714,-0.27540932296208903],"Bias":0.0},{"Activator":"","NeuronIndex":247,"Weights":[0.25599885048694809,0.1487023025932683,0.79084567456479837,-1.0172614199132419,0.26902374134391266,-0.052679415165791381,-0.29945388026230291,-0.33868566049281862,-0.30506887465425031,-0.4268481934136899,-0.29347631047079376,-0.43143270820248697,1.4863569627567463,0.29032374192186855,-0.089429536176804825,-0.74158057415585354],"Bias":0.0},{"Activator":"","NeuronIndex":248,"Weights":[0.21527701329864155,-0.20365279250818608,1.0920218152475976,-0.98858983197472428,0.49451174008235177,0.30733921322628893,-0.44774464705379424,-0.53466093568053263,-0.30507532885604505,-0.47864583602529975,-0.50044134744212865,-1.6121362053690638,1.7285209754759376,-0.037750656645293833,0.074011890037102818,-0.94067842206858343],"Bias":0.0},{"Activator":"","NeuronIndex":249,"Weights":[0.36147674747783942,-0.42827032525722369,1.1578186991238055,-0.97771238902879887,0.54194462162863377,0.14321359966065542,-0.444780894163429,-0.59003956793344359,-0.629926466351179,-0.29361296450012653,-0.40800304217695177,-1.0972211932807225,1.2104547474245408,-0.10061477596247763,-0.5302455119816778,-0.27509042719148108],"Bias":0.0},{"Activator":"","NeuronIndex":250,"Weights":[0.34449530349258684,-0.554204149439106,0.46444285395177359,-0.42454099503370218,0.63552731611527991,0.096699013251050486,-0.2128855509756141,-0.1606523753957865,-0.3091419501830695,-0.147304703398933,-0.3151530028582647,-0.46664810146879232,0.520355964126644,-0.30027999609194617,-0.23325299813681127,-0.042966421823972534],"Bias":0.0},{"Activator":"","NeuronIndex":251,"Weights":[0.047028844541231012,-0.053911208074248616,0.010306711108609845,-0.063415218618536634,0.18111806735538308,0.074314547256277674,-0.071742170513419426,-0.093433991496384081,-0.10754630009998643,0.0055883388347859738,-0.11446675141629413,-0.003265878444039352,0.094929016570292235,-0.13599221516690346,-0.04420292621626494,0.0335170034628235],"Bias":0.0},{"Activator":"","NeuronIndex":252,"Weights":[-0.0086348633413033324,-0.011649728797157661,-0.0027277873109429946,0.0060966513822432516,0.001898761327494802,0.0033297718895304767,-0.0099013709301187,-0.014344027122355774,-0.043153753886182034,0.00095801295833655481,0.003820860584366188,0.014794731746126305,0.023293584206211686,-0.032754134118576778,-0.010720395888493998,0.0007878645876239419],"Bias":0.0},{"Activator":"","NeuronIndex":253,"Weights":[-0.0011025220670734929,-0.0024864144867774163,0.0055398785817608754,-0.0098817352240702771,0.00093299721610753191,-0.016041962524133292,0.0067846222579156963,-0.017913261096328698,0.0069929667556777658,-0.01190970361927976,